0.157972 -0.55629 0.0736518 -0.0489074 0.404496 -0.821371 -0.640487 1.01775 -0.2467 -0.319776 0.514571 0.208483 -0.752865 -0.231664 1.68027 0.726703 0.276398 1.00606 -1.09455 0.259751 -0.351928 -0.334987 -1.0199 1.29475 -1.10424 -0.330864 -0.814152 -0.608771 0.480178 -0.472011 -0.864927 2.35119 0.419328 -0.566274 0.301964 0.320559 -0.774543 0.668107 -0.0196585 1.0386 -0.321719 0.535508 -0.0635322 0.822459 -0.330621 -0.194769 1.12167 1.79088 0.204184 1.33759 -0.842784 -0.51075 -0.893491 0.363558 0.81469 -0.0768643 -0.740649 -1.75049 -0.143428 -1.6641 -1.24404 1.3087 0.0583331 0.782804 
-0.20806 0.178155 -0.326667 0.884122 0.0429261 0.967578 0.213905 -1.0633 -0.268915 2.07833 1.57109 0.215149 -0.696961 0.589298 0.0942327 -0.251078 0.331124 -0.841245 -0.300834 -0.0855046 1.58553 -0.590836 -0.353112 2.00378 -0.375112 0.376068 0.583341 0.508472 0.262388 0.850973 -0.699408 0.95255 -0.128686 0.399189 0.830935 0.133547 -0.243502 -0.596298 0.715015 0.0285879 -0.761073 0.719067 0.302511 -0.963644 0.180629 -0.38732 1.10812 -1.4188 2.08594 -0.747442 -1.06164 -0.775435 0.0980441 2.2114 -0.671106 0.660443 -0.852336 -0.303555 -0.248788 0.933912 1.10727 0.623245 0.986366 0.0244311 
0.106649 -0.479193 -0.564615 -0.547277 0.10095 -0.112573 -0.609244 -0.120911 -0.875917 3.15572 -0.580954 0.517524 -0.233985 0.79064 -0.997903 0.378474 -0.634326 -0.380276 0.746267 0.169413 0.113399 0.153347 -0.231891 0.471179 -0.831966 -1.03442 -0.78941 -0.808356 -0.788249 0.908307 0.59746 0.750238 0.0460585 0.516303 -1.02792 -0.840825 1.33721 -0.651769 0.248213 -0.541984 0.320144 -1.03159 0.80793 -0.640376 -1.03253 1.02259 0.102501 -0.374656 -0.27523 -0.0300816 0.397603 -0.0054872 0.124621 0.516105 0.437192 -0.23018 0.13471 -0.323251 -0.108321 0.934441 -0.682133 0.312559 0.210775 0.723515 
0.291811 0.474193 -0.585262 0.382788 0.515926 1.35571 0.375403 0.530375 0.688899 1.21885 0.843236 0.0187246 1.83859 0.0629312 0.101325 0.949935 0.657009 -1.17369 0.0474787 -0.199734 -0.27675 -0.282657 0.2026 -0.887365 -0.344898 -0.175055 -0.419527 0.393609 -0.552518 2.56519 1.18158 1.38345 -0.432039 -0.199086 1.15678 -0.687638 0.263446 0.229979 0.51342 0.219094 0.210673 0.642107 -0.294245 -1.02101 -0.259298 -0.492624 0.443927 0.415017 -0.0675019 0.0392233 0.566871 -0.448274 -0.00985612 0.492619 0.304178 -0.775065 -0.172867 0.954778 -0.186614 0.351529 0.260457 -0.541546 0.458283 0.0320328 
0.382252 -0.154799 0.0137928 -0.820446 0.741817 0.300419 0.147211 -0.251171 0.148886 0.330753 -0.650125 0.180299 1.15206 -0.883018 -1.46572 -0.456748 0.0975899 1.23644 -0.491862 -0.345133 0.484413 -1.47615 -0.408395 -0.496003 0.958969 -0.892371 0.437126 -0.15659 -0.584478 1.54615 1.45988 2.93287 0.519103 0.297751 -0.857522 0.143688 -0.0479217 0.403935 0.879106 1.28093 0.117856 -0.560141 0.415348 0.179687 -0.48684 0.0652165 1.03545 2.09814 1.19139 -0.204023 -0.810515 -0.951331 -0.109887 -0.141347 -0.235269 0.682877 -0.447708 -0.198133 -0.786827 0.263636 0.170301 -1.21933 0.131073 -0.423872 
-0.174107 -0.00229286 -0.149816 -0.561604 0.176475 -0.859443 -0.764203 -0.0351705 -0.322628 1.32638 0.896416 -1.31226 1.21584 0.0550627 -0.175588 -0.28371 -0.287138 0.279427 -0.0765006 -0.332258 -0.63072 -0.790146 -0.383474 -0.39207 -0.338083 -0.160226 -0.70552 -1.1633 -0.288901 2.89172 1.94857 0.704798 0.257296 -0.0345723 0.473108 -0.588379 0.900951 0.316395 0.319557 -0.653895 -0.150125 0.11381 0.757807 -0.453819 -0.484943 -0.887282 0.199707 0.867109 0.571171 -0.581582 0.390142 -1.19067 -1.32434 1.50873 -0.900505 0.223862 -0.235585 -0.467064 -0.580104 0.259193 0.0755097 -0.386931 0.955461 -0.639852 
-0.634393 -0.781693 -0.00304825 -1.0297 -0.755309 -0.482114 -0.548262 0.099003 0.238176 -1.12007 -0.683527 0.0142809 -1.09969 0.0829754 1.11766 -0.168374 -0.572103 0.769987 1.02261 -0.101923 1.15247 -0.605028 -0.549674 1.53067 -0.0921318 -0.923785 -0.529321 0.275988 0.128116 -1.13455 -1.40097 0.899225 -0.891523 -0.495733 0.439993 -0.428741 -0.0628147 -0.549888 -0.0373035 0.120156 -0.0813516 0.955612 -0.282138 1.28846 0.0621218 -0.688832 -0.497961 1.17126 1.67675 0.57243 -0.207454 -0.780361 0.578232 0.665729 -0.674032 -0.22155 0.147688 -0.116825 -0.0789964 0.0701389 -0.644284 -0.15682 -0.618592 0.0285495 
0.055724 -0.609151 -0.171981 -0.879657 -0.124949 0.816006 -0.426451 -0.170579 -0.399589 1.33815 0.222083 1.42455 0.733392 0.629503 0.0375987 -0.495557 0.131441 -1.20841 -0.216068 0.261666 0.417401 0.25887 0.240783 0.0635977 -0.246651 0.0615015 0.295484 1.09431 -0.700552 -0.411694 -0.393555 0.946106 -0.721558 0.0618286 0.468992 -0.644954 -0.447753 -0.861 -0.563923 -0.171844 0.740813 0.466092 -0.473706 -1.02906 0.0326286 0.207575 0.687822 -0.474523 1.66011 -1.06142 -0.07502 0.579273 0.49023 -0.433678 0.661133 -0.789023 0.0264509 0.480954 0.27493 0.0635073 0.41241 1.13807 -0.302022 0.901961 
0.300598 0.719422 0.190177 0.0300837 0.763306 0.86228 0.0311959 0.449213 -0.0889144 0.715534 0.229474 -0.942525 1.00473 0.505062 0.313787 0.645761 0.588825 -0.0375694 -0.902827 0.0127669 -0.267488 -0.558291 0.509774 0.655075 0.336871 0.636144 -0.331402 0.122768 0.393942 1.05072 0.802757 0.506939 0.0996741 -0.601493 0.551557 0.48036 0.0329917 0.0135986 -0.85896 0.3058 -0.840682 -0.65645 0.438105 0.266121 0.138949 -0.611074 -0.407198 0.118176 -0.984188 -0.332254 -1.35301 -0.596965 -1.00865 2.33495 0.306365 -0.20172 -0.509333 1.07967 -0.811862 -0.0906181 1.17774 -0.218648 -0.221964 -0.685469 

-0.152563 0.719177 0.130858 -0.221013 -0.126045 0.489532 0.854756 0.594759 0.263442 
0.361528 -0.389517 -0.438006 -0.75983 -0.14884 0.716775 -0.147709 0.64815 0.35427 
-0.823979 -0.204307 0.172008 0.239907 0.470817 -0.33946 0.365113 0.613853 -0.565986 
-0.372924 -0.185672 -0.647013 0.219552 -0.608947 -0.390239 -0.369366 0.116868 0.214344 
-0.648006 0.168161 0.0111364 -0.857924 -0.253365 -0.472138 0.306456 0.091174 0.196811 
-0.298872 -1.03368 -1.25146 0.16718 -0.53335 -1.17738 -0.592033 -1.08315 0.643981 
-0.118352 0.408608 -0.198038 0.861241 -0.677099 -0.144194 -0.14499 0.479756 0.186466 
0.386584 -0.764106 -0.250429 0.362155 -0.353849 0.59694 0.349951 -0.257386 -0.841668 
0.533018 -0.870407 -0.0162232 -0.00593908 0.0451564 0.463315 -0.729157 -0.384982 -0.951565 
-0.978105 0.0501289 -3.4682 -0.912521 -0.538539 -0.359205 -1.09491 -1.15867 -0.880554 
-0.499895 0.188271 -1.03061 -0.946845 0.218223 -1.23945 -0.216888 -0.5189 -0.330908 
-1.24398 -0.702301 -1.05907 0.104914 -0.627584 -0.959714 -0.489448 0.00137529 0.0562121 
-1.11384 0.437311 -2.2068 -0.319913 -0.588295 -0.132255 0.128305 -1.06815 0.285458 
0.28794 -0.344055 -0.864185 0.533457 0.481389 0.398972 0.356722 0.72726 -0.374077 
-0.716765 -0.757362 -0.629291 -0.959968 -0.710061 -1.63172 -0.829073 -1.15545 -0.949998 
-0.724187 0.14468 -0.934786 0.724424 0.894253 -0.86431 0.851563 -0.0799444 -0.764754 
0.176101 -0.690395 -0.326886 -0.0559446 0.630623 0.837266 0.0529433 -0.0269728 0.246545 
-0.644412 -0.799176 -1.22645 -0.259014 -0.97923 1.21615 -0.177384 -0.84138 -1.02697 
-0.919245 -0.472748 0.332679 0.293699 -0.201963 -0.503247 0.448453 -0.398079 -0.667753 
-0.00302854 -0.45674 -0.0663643 -1.1508 0.236111 -0.294885 -0.0950301 -0.181382 -0.261369 
-1.10405 0.505963 -1.41797 -0.934892 -1.42861 -0.968847 0.176213 -0.656741 -0.244154 
-0.0730262 0.811731 0.725873 -0.358929 -0.211142 -0.843966 -0.982398 -0.908251 -0.167077 
-0.513738 0.361893 0.419437 0.0124954 -0.0640594 -0.84537 -0.614995 0.0117109 0.80874 
-1.1522 -1.03431 -1.34533 -0.502515 -0.480783 -1.57191 0.884337 -0.500798 -1.27343 
-0.810172 0.27766 0.0133555 -1.00804 0.0386073 0.410977 0.0361783 0.71975 -1.02782 
0.575826 0.665094 -0.888868 -0.436148 -0.50644 0.309686 -0.807403 0.399575 -0.519779 
-0.819477 0.830706 0.0839933 -0.835298 0.47078 0.443385 -0.743975 0.380495 -0.27989 
-0.458859 0.157937 -0.546586 0.209814 -0.920838 -0.899595 -0.402591 -0.814715 0.208344 
-0.769306 0.579468 0.15027 -0.660229 0.336405 0.0491664 -0.374268 0.780376 0.453708 
-1.61735 -1.49506 -3.51124 -0.677078 -0.702035 -1.34141 -0.736912 -1.83975 -0.713779 
-1.60092 -0.327177 -2.65596 -0.428255 -0.8021 0.297272 0.0257407 -0.346515 -0.28864 
-0.561948 -1.44937 -2.75516 -1.16656 -1.0985 -1.24602 -1.8143 -2.04841 -1.3082 
0.269293 0.397653 -0.132789 -0.143625 0.665865 0.313351 0.847111 -0.55353 0.586319 
-0.467754 -0.296752 -0.299672 0.557727 -0.179501 0.332256 0.881785 0.405612 0.583964 
-0.181417 -0.172447 -0.885409 -0.293738 -0.525108 -0.786687 0.239029 -1.37764 -0.206173 
0.204116 -0.716867 -0.641102 -0.642356 0.558249 0.552332 0.238279 -0.55292 -0.00300009 
-0.695917 -0.885737 -0.385395 -0.84736 -0.0573486 -0.495706 -0.620259 -0.454619 0.170249 
0.856873 -0.763766 -0.213587 0.465912 0.875035 -0.287839 -0.405634 0.063524 -0.0109996 
-0.0219392 -0.598093 -0.0163302 0.070499 0.255244 -0.15229 0.20542 -0.979184 -0.556258 
-0.535932 0.0622289 -1.34903 -0.424879 -0.885995 -0.162275 -1.18006 -0.938968 -0.949583 
-0.964681 -0.553792 0.200231 -1.04158 -0.33057 0.483074 -0.12229 -0.640158 0.188693 
-0.245961 -0.532027 -0.289927 -0.614525 -0.708722 -0.832283 -0.820234 0.486838 -0.434124 
0.32739 0.22627 -0.583542 -0.0957493 -0.412923 -0.482443 -0.527663 -0.0652935 -0.432585 
-0.923382 0.0998662 -0.88585 -0.764837 -0.837508 0.51236 -0.596333 -0.924339 -1.2969 
-1.04465 0.699512 -0.544527 0.577787 0.105026 0.365339 -0.619523 -0.807186 0.837202 
-0.314014 -0.892775 0.437387 -0.766335 1.00544 -0.0928156 -0.0267026 -0.199593 0.181312 
-0.161953 0.0296768 -0.789169 -0.608326 0.724604 -1.11154 0.1261 -0.63739 -1.02602 
-0.516916 -0.7917 -1.86753 -0.0602114 -0.349559 -0.468555 -1.35685 -1.61111 -1.67322 
-1.95693 -0.634662 -3.03929 -0.0903424 -1.22214 -1.54218 -0.492922 -1.76057 -1.42903 
-0.935869 -1.15473 -0.684307 0.226975 0.747492 0.172774 -0.387349 -1.08367 -1.1467 
-1.80779 -0.227091 -0.0516455 0.518965 -0.430748 -1.259 -0.641439 -1.14538 -0.820322 
-0.216811 -1.03922 0.568686 -0.792315 0.542537 -0.45591 -0.442499 0.249728 -0.100836 
-0.662682 0.732617 -0.596834 -0.728647 -1.20214 -0.980703 0.281404 0.546219 -1.28075 
-0.809328 -1.3765 -2.49799 -0.545044 -0.430065 -1.63693 -1.2847 -1.45062 -1.55686 
-0.707022 0.285863 -0.240818 -0.852806 0.599771 -0.198387 -1.20856 0.139593 -0.689132 
-0.237796 -0.284077 0.62699 0.864052 -0.830341 0.766113 0.748112 -0.629176 0.808698 
-0.0225601 -0.938179 0.469834 0.861375 -0.226673 -1.03531 -0.626724 -0.355046 -0.151078 
-1.00851 0.0598509 -1.01123 -0.0392584 -0.324888 0.387727 -0.548803 -0.0419308 -0.114071 
-0.3098 0.140934 -0.0553135 -0.261388 -0.934135 0.210137 -0.337874 0.275935 -0.915821 
-1.5145 0.0580917 -1.14214 -0.671264 0.297843 -0.980026 -1.13856 -0.28174 0.0980172 
-1.67117 0.371198 -1.21235 -0.118396 -0.704192 -0.351185 -0.521105 0.192486 -0.639189 
-1.01014 -0.952882 -0.597178 -1.02771 -1.23646 -1.06326 0.351335 -0.291091 -0.474189 
0.0488034 0.175622 -0.823028 0.714077 -0.644808 -1.03006 -0.551408 -0.673471 0.0354471 
-0.756155 -0.523414 -0.619209 0.0416718 -0.242604 -0.116956 0.3741 -1.0936 0.014104 

-1.19668 -0.496727 -1.02477 0.222211 -0.983472 1.18161 -0.0111284 -0.501103 -0.322575 2.89467 0.235162 -1.33398 1.21694 -1.34116 0.0187913 -0.899051 -0.823785 0.895079 -1.2563 -0.596941 1.11885 -1.77548 -1.39861 0.922687 -0.307837 -0.199166 -1.22093 0.360932 -1.05179 3.66703 2.56755 3.57812 -0.55327 -0.966982 0.504205 -0.91177 -0.931609 -0.555249 -0.877929 1.31659 -1.26825 -0.581826 -0.679446 -0.314074 -0.66343 -1.52971 0.246793 2.30972 3.46942 0.116598 -0.642704 -0.61811 -0.901944 3.80336 -0.291883 -1.1107 -0.462416 0.459548 -0.885837 0.184618 1.15688 -0.940179 0.471984 -1.10338 

-0.17923 -0.77518 -1.26209 -1.33368 0.129547 -0.905834 0.307791 -0.763703 -0.422364 