0.540363 -0.183518 0.37995 0.325136 1.74205 2.0197 -0.44853 0.143025 -0.342252 3.37287 0.33075 -1.45072 -1.1243 0.380748 0.501781 0.472823 0.268223 -0.863023 -0.537935 0.4883 -1.54034 0.681033 -0.731223 1.60871 -1.08348 -0.491907 -3.03051 -1.39397 0.588879 0.896654 0.624113 3.24833 0.406349 0.0426256 0.404469 -0.36892 0.0565789 0.623146 1.34352 2.5178 0.180968 1.67828 0.227791 0.684785 -0.808204 -0.113117 1.19215 1.37182 1.22948 0.713219 0.575926 -0.133208 -0.423546 2.45277 1.35588 -1.76917 -0.449031 -2.64545 -0.526149 2.82907 -0.610173 1.98591 0.62379 0.274183 
-0.451998 -0.685476 -0.287079 -0.00323088 0.263048 0.146809 -0.16539 -0.354081 -0.204927 1.35521 0.380022 0.246425 -0.53812 0.0674166 1.04975 -0.026504 0.681846 -0.677006 0.250586 0.467658 0.639002 -0.639181 -0.509347 2.56041 -0.881344 0.510408 1.01641 -0.232397 -0.121674 3.04614 0.0806682 2.45627 -0.905485 -0.284801 0.175788 -0.00544349 0.149853 -0.746186 1.7977 2.05918 -0.43539 -0.204263 0.561361 -0.317508 -0.972936 -0.342287 1.28825 1.44538 2.71412 0.202512 0.421817 0.00422444 0.271795 2.68297 0.390333 -1.04554 -0.946784 -0.435821 0.535354 0.428996 1.77221 3.34826 0.0716694 0.729107 
0.407246 -1.00213 -0.340646 -0.701492 -0.174817 1.24746 -0.927086 0.569056 -0.526685 4.99848 1.11703 1.15243 -0.725942 0.506133 -1.45263 -0.117245 -1.29359 -0.651889 0.409469 0.0899559 -0.168441 -0.188162 0.369148 0.420653 -0.832502 -2.33211 -0.411048 -1.65523 -0.819053 0.771516 -0.162244 0.96966 -0.413129 0.122294 -0.671714 -0.853052 0.843936 -0.810518 2.49707 3.73217 1.20075 -0.18859 0.818177 -0.925784 -0.837166 0.308467 1.6962 0.66555 -0.355666 -0.00337736 0.742291 0.116863 0.086666 1.47183 2.21067 0.0304014 0.107311 -0.70195 -0.292764 0.995866 -0.200533 2.88011 0.195361 0.716349 
0.215841 -0.138799 -0.119379 0.418525 0.620625 3.03972 0.451916 1.23486 2.23307 1.52414 2.05413 6.65268 -0.26302 0.352654 -0.523699 0.522105 0.557203 -0.476761 0.631078 0.13799 -0.94125 -2.01913 -0.238259 0.24015 -0.244818 -1.77513 -1.22849 -0.340452 0.0387174 1.57549 1.53467 4.83589 -0.51902 0.543511 0.635692 0.328845 -0.0293444 -0.432749 2.38759 0.677655 0.871845 2.67244 0.491796 -0.304423 -0.286396 0.486605 -0.530614 0.369678 4.9533 0.758259 0.528182 0.438479 -0.0227355 0.518376 0.438856 -0.163384 0.424503 -0.937117 1.84696 0.966553 -0.0549126 0.878973 0.158738 0.240565 
-0.0947388 -0.252814 0.113589 -1.12675 1.35278 0.185173 -0.810169 -0.766883 -0.288725 -0.603959 -0.34851 -0.321311 -0.202695 -0.681023 0.701572 -0.179321 0.438483 -0.0880102 0.135765 -0.576453 0.591407 -0.843041 -0.589042 -1.91361 0.742565 -2.84128 0.0517369 0.161061 -0.697192 -1.08591 0.893363 1.68413 0.550677 0.0940809 -0.533522 0.0114865 -0.254912 0.0998019 1.95133 0.736314 1.08686 -1.32175 0.323164 -0.38235 -0.230938 0.291856 0.208988 -1.20336 2.72119 -0.0281131 -1.60253 -0.907798 -0.166618 -1.7577 -0.782583 0.525047 -0.825694 -0.259389 -1.26939 -0.317509 0.149728 -0.976099 -0.39122 -0.137807 
0.402399 -0.289432 -0.369322 -0.899906 -0.687097 -1.28236 -0.5221 0.0087177 -0.665271 2.62813 0.193812 -0.172393 -0.405599 0.448506 3.46067 -0.0459461 -0.868644 -0.05453 0.47455 -0.331484 -1.20449 -1.69938 -0.593128 3.28963 -0.827229 -2.21828 -1.65388 -0.350543 -0.167752 4.60966 -1.19832 -0.281812 -0.257465 0.0506626 -0.251288 -0.141781 0.744228 0.0658939 -1.48994 1.47403 -0.268601 0.75378 0.714263 0.349592 -1.42398 -0.188335 1.82861 2.12476 -1.0404 0.115132 1.26636 -0.414916 -0.414808 2.72439 1.81213 -0.268311 -0.152833 -1.19734 1.05416 0.230542 -1.23021 5.50528 0.373389 2.11704 
-0.609938 -0.86425 -0.242434 -0.829832 -0.494392 0.0243437 -0.624739 -0.41319 0.0804364 2.67353 0.0385299 -1.02302 -0.59382 0.175945 1.74363 -0.499181 -0.328678 -1.10854 -0.317216 -0.0374497 -0.229424 -0.825541 -0.317868 -0.465223 -0.750513 -0.544002 -1.21448 -0.528351 -0.467525 1.77325 -0.773788 4.19927 -1.69264 -0.752899 0.352278 -1.48924 -0.703062 -0.696227 0.871863 2.70257 -1.30479 1.7319 -0.762724 0.750949 -0.674179 -0.925739 -0.162564 -0.204821 0.295745 -0.315829 -0.319147 -0.832262 -0.448755 0.760095 1.76317 -1.35007 -0.326957 -1.29588 -0.143407 1.75113 -1.57292 2.98173 -0.0441474 -0.0243217 
-0.284095 -0.948002 -0.451524 -0.4901 0.21908 0.0192465 -0.470264 -0.276052 0.213579 2.22052 2.39295 3.50541 -0.229673 0.135448 2.5025 -0.191872 0.0464036 -0.715568 -0.161435 0.257474 -0.370491 -0.899569 -0.20147 2.31372 -0.454881 -1.36513 -1.18562 0.629508 -0.243598 0.689021 -1.03581 0.95239 -0.381719 -0.0865738 0.0873763 -1.16804 -0.484812 -1.20011 -0.107315 1.28994 0.508956 0.935869 -0.457951 0.860868 -0.216232 0.0622334 1.47058 1.14803 1.86289 -0.61536 -0.110559 -0.537243 0.198656 0.271018 1.96504 -1.33008 -0.0718864 -1.50724 0.826829 0.682717 -1.10231 1.87093 -0.72446 0.560664 
0.128233 0.590579 -0.127085 0.2699 0.589662 1.52989 0.134122 0.384197 1.06115 2.75137 1.81442 0.0262145 0.231388 0.235898 1.42519 0.454834 0.822906 -0.0959731 -0.461704 -0.561647 -0.840052 -1.98247 0.534079 2.30337 -0.510594 -1.10581 -1.06453 -0.504048 0.0928329 0.719452 0.0557574 6.81217 0.00351513 -0.587836 0.29652 -0.0379206 0.690415 0.0300852 1.06724 1.76425 0.423548 -0.661623 0.108311 -1.34571 -0.293199 0.330071 -0.29481 0.745657 2.45738 0.261947 -0.787373 0.142493 -0.0778149 -1.06891 0.93337 -0.985661 -0.425649 -1.10953 -0.11417 -1.57008 -0.625041 -0.650178 0.178559 -1.13166 

-0.0383326 0.117939 0.210884 -0.229323 -0.15541 0.541897 0.798194 0.62503 0.634046 
0.471837 -0.943532 -0.317692 -0.242207 0.0773402 0.278594 -0.0304642 0.744275 0.238241 
-0.679146 0.0981789 0.368858 -0.0611591 0.638544 -0.553855 0.496615 0.629832 -0.3166 
-0.384051 -0.714775 -0.515108 0.143187 -0.79166 -0.345434 -0.158402 0.167722 -0.133565 
-1.19935 -0.257615 0.511379 -1.04372 0.00433666 -0.973052 0.245967 -0.540681 -0.210652 
-1.12212 -1.92717 -1.1762 -0.777944 -1.25624 -1.85107 -1.10683 -1.34995 -1.43164 
0.016266 -0.167912 0.221318 0.839948 -0.679767 -0.0326721 -0.0523719 0.156588 0.138694 
0.473779 -0.945902 -0.685209 0.289296 -0.680134 0.557427 0.00548216 -0.0981191 -0.674272 
0.208444 -1.55685 -0.266035 0.027146 0.461775 0.0976468 -0.255605 -0.626791 -1.54428 
-2.36257 -3.27381 -1.62451 -1.92156 -3.06735 -2.05547 -4.2324 -4.13436 -3.57108 
-1.73533 -1.39013 0.131488 -0.740712 -0.461595 -1.16524 -0.760666 -1.45354 -1.51852 
-2.50214 -4.09475 -0.145999 -1.09299 -1.51534 -2.00509 -0.549507 -0.798944 -3.49269 
-0.444301 -0.473291 -1.17755 -0.282441 -0.712464 -0.718026 -0.0915173 -0.377502 0.34533 
0.0443308 -0.673006 -1.01582 0.484581 0.439162 0.27776 -0.0185417 0.465556 -0.408355 
-1.08077 0.465692 -0.992406 -2.18186 -2.36218 -2.31936 -0.901421 -1.83741 -2.28567 
-0.724212 0.0835196 -0.852118 0.755498 0.831732 -0.890622 0.855369 -0.0536502 -0.506347 
-0.431723 -1.12143 0.137658 -0.0385735 0.272006 0.880777 0.496762 0.0327332 0.400886 
-0.629176 -0.79163 0.0537072 -0.389878 -0.936501 -1.05059 -0.401153 -0.381701 0.721425 
-0.115975 -0.168682 0.355132 0.177602 -0.0863504 -0.528214 0.539269 -0.375635 -0.626497 
0.154674 0.0511156 0.171644 -0.999159 0.572735 0.637566 -0.0505617 -0.339865 0.0427077 
-0.248015 0.396626 -0.700625 -0.973619 -1.08195 0.0313733 0.580734 0.133733 -0.146754 
-0.590287 1.27092 0.438539 -0.0826384 -0.323331 -0.67736 -0.95899 -0.901956 0.497319 
-0.536187 0.272951 0.646078 0.0883257 -0.0552454 -0.827788 -0.624495 0.00894797 0.368945 
-1.97222 -2.37724 -1.63217 -0.140839 -0.645135 -1.76063 -1.44846 -2.32937 -2.01239 
-0.053026 0.352987 0.122797 -1.01063 0.193239 0.109892 0.852939 0.514101 0.17067 
-0.258702 2.04836 -0.979796 1.13271 -1.0065 0.467826 -0.403857 -0.436499 -1.1325 
-0.455827 0.811457 0.277912 -1.34938 0.222234 0.591707 -0.252562 0.823704 -0.222817 
-0.0806442 0.840587 -0.278139 -0.355488 -0.974222 -0.449056 0.515388 -0.416846 0.275918 
-0.731239 0.318112 -0.0809273 -0.77975 0.259228 0.0571919 -0.371606 0.738487 0.456883 
-1.34115 -2.18396 -1.06773 -0.683969 -1.03635 -1.95766 -2.99911 -2.99729 -2.11298 
-1.71268 -0.882007 -1.43047 -1.09193 -0.692241 -0.393764 0.455425 -0.434012 -0.637432 
-3.24033 -4.01826 -2.50613 -2.14614 -2.09263 -2.66488 -2.84464 -3.06054 -4.51201 
0.172757 0.0583853 -0.00903527 -0.263622 1.05382 0.655514 0.660527 -0.636305 0.668713 
-0.601327 -0.109874 -0.967486 0.395511 -0.374573 0.385601 0.75149 0.432153 -0.335348 
0.249894 -0.668514 -0.543626 -0.0208946 -0.043659 -0.277006 0.0309637 -0.959599 -0.353631 
-0.768937 -0.770077 -0.963389 -0.843492 0.0508874 -0.222988 -0.333293 -0.595378 0.976906 
-0.806981 -0.662933 0.487578 -0.81394 -0.304037 -0.656141 -0.441518 -0.340587 0.255472 
0.621031 -1.0245 -0.319072 0.520523 1.17856 -0.724803 -0.596589 0.453302 0.814384 
-1.56504 -3.21281 -0.874307 -2.10935 -1.08811 -0.707945 -1.25732 -1.49802 -1.95786 
-1.37963 -1.84639 -0.730882 -2.13564 -1.21985 -1.96759 -3.07712 -1.91713 -0.546818 
-1.10726 -0.4497 -0.390149 -1.4787 -0.975667 -0.262055 0.429674 -1.30105 -0.347995 
-0.162082 -1.62768 -0.602325 -1.11655 -0.963618 -0.490176 -2.49894 -0.132154 -1.38815 
0.715212 -0.268344 -0.132444 -0.0519603 -0.674896 -0.746432 -0.553893 -0.0786545 -0.43743 
-0.627939 0.261269 0.0277274 -0.640325 -0.990807 0.610027 -0.785996 -0.7051 -0.612229 
-0.86779 0.68791 -0.480942 0.366266 0.29186 -0.0815302 -0.704467 -0.926666 1.03174 
-0.667154 -1.10157 0.41768 -0.742068 0.331778 -0.00242548 0.17341 -0.401915 0.295808 
-0.659684 -1.1407 -1.02243 -1.18395 -0.07562 -1.27978 -0.82872 -1.86259 -1.11596 
-0.482623 -1.446 -0.644598 -0.782725 -0.12955 -1.09547 -1.63976 -1.30595 -0.619937 
-2.447 -3.18622 -1.20259 -1.48427 -1.47499 -2.0198 -0.614342 -1.37328 -2.75359 
-1.3083 -0.89483 -0.119957 -0.261175 0.62239 -0.670506 -0.376156 -0.455686 -0.249769 
-0.164243 -1.03127 -0.177718 0.112044 -0.475128 -1.18498 -1.13643 -0.949581 0.000624145 
0.845667 -0.622048 0.3363 -0.584901 0.20953 -0.631803 -0.355253 -0.494347 -0.109107 
0.183416 0.443591 0.712168 -0.847839 -0.971829 -0.913306 0.613093 0.464141 -0.551538 
-0.492044 -2.2259 -1.26324 -0.394829 -0.540166 -2.24243 -2.69601 -1.85219 -0.910129 
-1.70304 -1.57685 -0.392225 -1.62036 -0.765099 -1.00866 -2.59085 -0.47088 -1.09015 
-0.619321 0.389633 0.445191 0.815253 -0.27614 -0.496616 0.457024 -0.409926 0.990383 
0.745418 -0.651535 0.348446 0.620516 -0.21662 -0.97045 -0.680068 -0.380791 0.202201 
-0.487535 1.41751 -0.707072 0.217402 0.135381 0.223301 0.0903321 0.912421 0.291629 
-0.042669 -1.19967 -0.0570909 -0.464727 -1.25385 0.0541369 -0.83189 0.090878 -1.63236 
-0.973747 -0.801486 -0.846976 -0.953502 -0.133615 -0.89115 -2.79502 -0.569201 -0.423367 
-0.923993 0.00426875 -1.10426 -0.368121 -0.864892 -0.591848 -0.401538 -1.43447 -1.39755 
-1.25226 -3.1131 -1.53426 -1.25249 -2.15469 -2.23984 -4.92342 -3.01335 -2.28637 
0.470804 -0.050234 -0.434957 0.615918 -0.470943 -0.862992 -0.465721 -0.412213 0.285696 
-0.239738 -1.19837 -0.0468826 -0.378673 -0.799059 -0.315665 -0.512639 -1.0211 -0.0337281 

-0.943997 -1.37788 -1.21772 -0.612927 -0.445667 0.342826 -0.704561 -0.894795 0.152222 5.24436 1.61774 1.02702 -2.06789 -1.40982 1.83218 -1.40264 -0.551441 -2.29967 -0.837695 -1.0473 -1.20993 -2.34518 -1.16278 -0.38359 -0.884479 -2.6762 -2.0769 -1.23843 -1.15153 2.69342 -0.832565 4.24149 -1.04529 -1.22771 -0.693428 -2.13629 -1.70128 -1.90408 3.24467 3.45158 -0.7491 0.762955 -0.944768 -0.853326 -1.91684 -1.06833 0.169223 0.0769847 3.09998 -0.871872 0.350352 -0.454474 -1.16622 1.02092 2.94317 -2.75134 -1.03877 -1.85516 0.907269 0.520573 -1.15641 4.33396 -0.983601 -0.120987 

0.117504 -1.30475 -0.658421 -1.41739 0.155424 -1.10089 0.494716 -0.812885 -0.165307 