0.653807 -0.648506 0.316388 0.652729 1.22723 -0.518671 0.0249441 0.44037 -0.358029 -1.10033 -0.413799 0.75145 -0.485992 0.170806 1.05478 0.49546 -0.00773924 1.38239 -0.0628422 0.275682 -0.734429 -0.514517 -0.616076 0.957256 -1.07629 -0.707032 -0.74927 -0.382316 0.922558 -0.2927 0.578285 0.642145 0.429699 -0.212256 -0.0958268 0.0324398 0.218833 0.609761 0.0214674 1.17194 0.0539022 0.456206 -0.363776 1.4589 0.159849 -0.817406 0.75379 1.1918 -1.27922 0.419991 0.0249382 -1.27451 -0.764159 0.976741 0.459778 0.303566 -0.333968 -0.530705 -0.43053 -1.81055 -0.527618 1.37867 0.456632 0.776947 
-0.478277 0.197789 -0.292831 0.425892 0.294516 0.240211 -0.142488 -0.398452 -0.0774968 1.10934 1.16093 0.126859 -0.20706 0.527572 0.40238 -0.278857 0.142572 -0.756045 -0.280428 0.819303 0.363189 -0.33842 -0.780083 0.525028 -0.312256 0.137062 0.860728 0.373967 0.0802797 0.902619 -0.433984 1.1477 -0.165228 0.652322 0.195967 0.547975 -0.0605687 -0.51944 1.16035 0.882371 -0.351338 0.845542 0.459715 -0.285176 -0.108703 -0.183743 0.754472 -0.33747 0.37047 -0.579842 -0.588814 -0.547288 0.322776 -0.60503 -0.851034 0.614748 -1.08533 -0.921788 0.135775 0.479254 0.852537 0.800324 0.768751 0.0173684 
-0.381997 -0.0464814 -0.316231 -0.358767 0.114048 -0.516776 -0.510964 0.535932 -0.793594 1.29445 -0.708586 1.89801 -2.29635 0.847591 -1.02917 -0.056763 -0.422498 -0.106729 1.09491 0.459555 -0.944065 0.0483867 0.459941 0.156947 -1.19548 -1.58631 0.0218755 -1.00293 -0.626966 -0.376106 -0.366079 1.5428 -0.406673 0.38119 -0.664271 -0.763099 2.7264 -0.621603 0.457349 -0.77527 1.13049 -0.950703 0.660236 -0.934292 -0.723722 1.11542 -0.111631 -0.687261 -1.1039 -0.295209 0.341286 1.65434 -0.455463 0.679267 -0.29575 -0.0153794 0.765107 -0.810155 0.234622 0.561339 -1.3195 1.29272 -1.16812 0.698494 
0.260359 -0.465096 -0.767951 0.401653 0.854048 2.10948 0.557071 0.570575 1.35464 1.44204 1.01599 0.478187 0.634537 0.292677 -0.55884 0.650769 0.874195 -0.845148 0.771097 -0.24952 -0.113801 -0.542738 0.320909 -0.0249069 -1.17462 -0.596308 -0.734229 0.121787 -0.407226 1.23543 -0.14528 0.875483 -0.306222 0.133398 1.60056 -0.343829 0.375101 0.162903 2.25553 0.157061 -0.551606 0.287652 -0.268525 -0.948649 -0.445177 0.249301 1.48655 -0.581853 -0.408301 0.21041 0.683316 -0.531785 0.49601 -1.64783 0.439156 -0.739965 -0.0257727 0.367865 0.422489 -0.331956 -0.646155 -0.887814 -0.314883 0.112728 
0.216676 -0.306434 0.485929 -0.299627 0.930124 0.516118 0.149959 -0.247899 -0.00702219 0.0325624 -0.387543 1.03734 0.608009 -0.988722 -0.966196 -0.434288 0.369623 0.516752 0.33481 -0.455136 0.364915 -0.42389 -0.330635 -0.958934 0.936834 -0.783199 0.817055 -0.491408 -0.791236 0.411539 1.71911 1.75964 0.367231 -0.0124394 -0.652613 0.620528 0.251019 0.125275 0.566014 1.09177 0.76014 -0.556391 0.903366 0.585532 -0.38988 0.740871 0.486552 0.81087 0.391783 0.276392 -0.268471 -0.40452 0.589477 -0.0647466 -0.0245089 0.500295 0.0509984 -0.283946 -0.642814 0.764294 0.473605 -0.467185 0.179133 0.134237 
0.55877 0.470221 -0.547072 -0.715313 -0.0142069 -0.516352 -0.682493 -0.263539 -0.310801 1.11276 1.00554 0.24325 0.846241 0.304158 0.0144886 -0.224239 -0.28454 0.298351 0.118958 -0.544616 -1.30912 -0.855945 -0.566486 0.0638841 -0.835063 -0.59554 -0.471745 -0.71645 -0.201617 1.20479 -0.28119 -0.461181 -0.025423 0.210979 0.141039 -0.776949 1.31002 -0.0150779 -0.120869 -0.796417 0.162437 -0.0944073 0.869268 -0.459626 -0.51344 -0.383442 0.608305 0.262946 1.24515 -0.339917 1.24606 -0.565963 -0.40656 -0.758275 0.483394 0.293431 -0.552773 -0.779028 0.716195 1.21106 -1.77572 -0.0876621 1.25087 0.398793 
-0.289369 -0.019192 0.584887 -0.879367 -1.10565 -0.574756 -0.278456 0.157455 0.595735 -1.09793 -0.933712 -1.1503 -0.363238 0.65385 0.219836 0.097632 -0.491813 -0.00811385 0.0285411 0.200538 0.128017 -0.275366 -0.543215 0.735115 0.0580537 -0.45649 0.166881 -0.0781553 0.194423 -0.228295 -0.777934 0.93984 -0.616758 -0.608093 0.671112 -0.637248 -0.5806 -0.350199 0.822113 -0.653629 -0.284936 0.728596 -0.374036 0.879707 0.405576 -0.850194 -0.371205 0.550628 0.266444 0.483461 -0.568634 -0.702556 -0.309559 0.164476 -0.555152 0.39718 0.329248 0.361731 -0.277209 -0.160769 -0.433821 -0.284703 -0.328625 -0.385998 
0.203051 -0.546674 0.144717 -0.969191 -0.227666 -0.211261 -0.212413 0.360145 -0.656991 -0.472267 -0.0667503 1.03415 0.833849 0.559516 0.415393 -0.26082 0.245161 -1.49962 0.363611 0.497437 0.861264 0.286454 0.189826 0.104803 -0.110463 0.449251 0.420171 0.642711 -0.623433 -1.4766 -1.2092 -0.0462572 -0.303066 0.466105 0.172487 -0.035012 -1.40512 -0.705145 -0.0678165 -0.628352 0.438797 0.898803 -0.938366 -0.335451 0.530697 0.933419 0.409516 -0.339285 1.04261 -0.358424 -0.65267 -0.105651 0.396975 0.702211 0.602754 -0.506539 -0.164975 0.592777 0.490561 -0.407116 0.736531 1.58388 0.0171785 0.963255 
0.249178 1.15571 -0.238433 0.204945 0.75238 -0.132433 0.324053 0.214877 0.233836 1.47697 1.30167 -0.625816 0.442302 0.0972714 0.227601 0.430962 0.38502 0.441726 -0.803538 0.201293 0.432637 -0.666786 0.474449 0.667329 1.45988 0.658234 -0.153537 -0.0931159 0.113096 0.205015 0.692963 -0.679111 0.0231002 -0.880455 0.0687849 -0.27834 0.977147 0.135257 -0.832467 -0.334799 -0.204068 -0.690053 0.588739 -0.351602 -0.434353 0.164519 -0.595624 -0.311556 -0.301349 -0.425343 -1.10663 0.683202 0.377173 0.418456 0.234354 -0.602225 -0.555543 0.648478 -0.932724 -0.371893 0.586115 0.0635513 -0.600829 -0.759213 

0.200147 0.735808 0.181965 -0.112817 -0.153002 0.695624 0.8865 0.814558 0.777086 
0.435653 -0.360346 -0.560206 -1.05841 -0.0806458 0.49865 -0.479272 0.411174 0.677584 
-0.699364 -0.0848597 0.35858 0.523036 0.245008 -0.498382 0.411937 0.91676 -0.338827 
-0.779125 -0.00386996 -0.870987 0.0445827 -0.688334 -0.255541 -0.52353 -0.837558 0.18808 
-0.845767 0.213536 0.723103 -0.882836 -0.875962 -0.601182 0.100571 -0.448357 0.168643 
-0.541688 -0.897906 -0.310158 -0.412523 -0.748998 -0.975412 -0.311438 -1.66408 -0.09647 
0.0859281 0.530439 0.223427 0.427442 -0.652022 -0.109479 0.030421 0.503431 0.119051 
0.471568 -1.07831 -0.453683 0.714105 -0.258758 -0.494988 0.0734521 -1.0467 -0.479414 
0.640354 -0.782308 0.0220954 0.110997 0.124161 0.799162 -0.619369 -0.759152 -1.06106 
-0.932166 0.205274 -0.915183 -0.813299 -0.794279 0.65161 -1.4958 -1.20174 -1.21372 
-0.453745 0.224242 0.819019 -1.12834 -0.252841 -1.26648 -0.569904 -1.32787 -0.674749 
-0.927455 -0.661703 0.754659 -0.179225 -1.57354 -1.33172 -0.942627 -1.41383 -0.0379217 
-0.6231 0.410364 -1.26842 -0.668971 -1.40979 -0.134059 0.423404 -0.99351 0.115234 
0.278179 -0.578583 -0.900448 0.514581 0.324162 0.0334772 0.258693 0.792293 -0.376486 
0.497614 -0.426112 0.612706 -0.627998 -0.549285 -1.453 -0.968309 -0.68685 -0.51695 
-0.724348 0.17828 -0.944686 0.779401 0.480214 -0.88737 0.720667 -0.0625213 -0.488196 
-0.00659735 -0.659074 0.169182 -0.136968 0.599277 0.760639 0.0503287 -0.018953 0.391439 
-0.600383 -0.470459 -0.265383 0.0249554 -1.30484 0.797828 -0.403148 -0.655005 -0.00648428 
-0.662471 -0.40749 0.23127 -0.152221 -0.613137 -0.92905 -0.421437 -0.683031 -0.69822 
0.347206 -0.714367 0.365551 -0.964237 0.0348686 0.188603 0.0190269 -0.364591 0.33514 
-0.397705 -0.758322 -1.18241 -1.3483 -1.07842 -0.0543193 0.272982 -0.805596 -0.652981 
0.635449 0.728421 0.473494 -0.311276 -0.280077 -0.91557 -0.958161 -0.988068 -0.0258762 
-0.413872 0.411381 0.649356 -0.187947 -0.180481 -0.843486 -0.615282 -0.0316086 0.835101 
-0.917121 -0.832412 -0.606044 0.418923 -0.206078 -0.904144 0.542884 0.719009 -0.668351 
-0.0975287 0.478229 -0.374217 -1.72972 -0.168538 0.397566 -0.106274 0.654358 -1.07008 
0.390395 0.556431 -0.872599 -0.810291 -0.825802 -0.0610625 -0.964113 0.524571 -0.695087 
-0.663587 0.874052 0.443286 -0.805743 0.790483 0.645002 -0.818869 0.279978 -0.0990165 
-0.21292 0.290291 -0.352038 -0.0946268 -0.856696 -0.851788 -0.199416 -0.684919 0.0663156 
-0.817386 0.760257 0.0634778 -0.628693 -0.241992 -0.270286 -0.511287 0.782569 0.508256 
-1.13051 -0.956501 -0.344971 -0.742316 -0.864422 -0.270796 -1.33045 -1.25598 -0.997221 
-1.63507 -1.2934 -1.93897 -1.02932 -1.44458 -0.21699 -0.502364 -1.25566 -0.269621 
-1.01707 -3.26425 -1.943 -0.531083 -2.71028 -0.999335 -1.54435 -3.30214 -1.22776 
0.154087 0.400447 0.0778417 -0.246866 0.447105 0.0940051 0.487255 -0.717531 0.526953 
-0.429589 -0.573112 -0.805095 0.504016 -0.438903 0.279116 0.155019 0.291748 0.643863 
-0.303782 0.212948 -0.5568 0.0981635 -0.191758 -0.224064 0.172479 -1.3289 -0.142812 
-0.06289 -0.72332 -0.712189 -0.706648 0.197295 0.277038 0.360206 -0.956148 0.278556 
-0.729226 -0.97175 -0.267875 -1.46153 -1.66574 -1.44891 -2.43153 -0.895586 -0.233728 
0.652482 -0.556478 -0.0745853 0.326362 -0.115987 -0.721223 -0.420489 -0.287821 0.22752 
-0.448944 -1.7477 -0.737342 0.062866 -0.952095 -0.211259 -0.378062 -2.15111 -0.675132 
-0.255962 0.508505 -0.388245 -0.658045 -1.03842 0.548017 -0.56635 -1.16905 -0.518426 
-0.314291 -1.09609 -0.193185 -0.861676 -0.821597 -0.291822 -0.422914 -0.849891 0.494849 
0.0977105 -0.211111 -0.266437 -0.292753 -0.827376 -0.121603 -0.858099 0.638721 -0.156581 
0.744466 0.183099 -0.448148 -0.0559653 -0.555619 -0.612301 -1.19877 0.0217352 -0.473888 
-0.800954 0.499613 -0.188561 -0.0648407 -1.03467 0.488881 -0.796797 -0.46735 -0.643417 
-1.04015 0.799551 -0.422511 0.232286 -0.240016 0.107727 -0.590535 -0.856555 0.823351 
0.10945 -1.51507 0.597213 -0.94035 0.0411142 -1.27817 -0.739281 -0.67482 0.243194 
0.0977613 0.433582 -0.189879 -0.812324 -1.05031 -0.877414 0.231259 -1.2324 -0.430204 
-0.106085 -0.0873268 -0.124389 0.330648 -0.853489 -0.0158849 -0.952465 -0.607018 -0.652633 
-0.598972 -0.928349 -1.45902 -1.11981 -1.09899 -1.32886 -0.348022 -2.01519 -1.1143 
-0.908134 -0.812041 0.368282 0.723912 0.346984 0.0362776 -0.473565 -0.661742 -0.280138 
-0.701251 -0.606029 -0.852816 0.362496 -1.18603 -1.12114 -0.628526 -1.17554 -0.190214 
0.667999 -0.84067 -0.103927 -1.53447 -0.495001 -1.38379 -1.08662 -0.0145606 -0.186979 
0.485596 0.930329 0.561945 -0.817486 -0.954735 -0.888563 0.686463 0.793012 -0.9412 
-1.3605 -2.43687 -2.01949 -1.41882 -2.55047 -2.69873 -0.874292 -1.35008 -1.33454 
0.0182556 0.0656399 -0.604659 -0.622591 0.0206802 0.00159912 -0.974591 0.655689 -0.136524 
-0.267241 -0.283585 0.731832 0.793151 -0.967719 0.644156 -0.304517 -0.815684 0.783032 
0.542277 -0.821451 0.343766 0.510674 -0.0915431 -1.2159 -0.64749 -0.387469 0.22577 
-0.592661 0.45788 -0.908307 -0.503195 -0.546169 0.737106 -0.362732 0.175778 0.0766816 
0.650489 0.236062 -0.0607738 -0.197144 -1.11046 0.721893 -0.382649 0.680014 -0.830368 
-0.687595 -0.890393 -1.40976 -0.827654 -0.118911 -0.34763 -2.04145 -0.676281 0.33909 
-1.44609 -0.362616 -1.54239 -1.0199 -1.26354 0.443742 0.190483 -0.277575 -1.17136 
-0.0887357 -0.925686 0.517809 -0.602079 -0.976555 -0.871244 0.124105 -0.0543004 -0.113423 
0.446158 0.252008 -0.435271 0.680503 -1.10921 -1.02465 -0.52373 -0.809271 0.793469 
0.0894938 -0.265005 0.231063 -0.0117171 -0.522915 -0.191999 0.315501 -1.11959 0.264116 

-1.49949 -0.836453 -0.709273 0.30105 0.0711404 0.441853 -1.11725 -0.119494 -0.250548 0.999678 0.810863 1.74859 0.186734 -0.727413 -0.33355 -1.32085 -1.07656 0.667082 1.03371 -0.316074 0.44103 -1.62707 -1.06415 -0.733878 -0.446309 0.200469 -0.804343 -0.588947 -0.700335 1.65943 1.65297 3.06195 -0.98674 -0.611812 0.0985938 -0.629302 2.41173 -0.637039 1.13852 0.450656 -0.118317 -0.796731 -0.61078 0.152848 -0.541608 0.0180427 0.473391 0.0286403 1.26986 -1.03354 1.5363 0.477798 -0.904461 2.29025 -0.53279 -0.454475 -0.986452 -0.663923 -0.586437 0.468656 0.113947 0.170329 -0.736638 -0.824406 

0.316324 -1.37117 -1.20838 -1.56053 -0.182861 -0.706989 0.539829 -1.05626 -0.0471801 