0.680375 -0.188929 0.566198 0.608697 0.785146 -0.670565 -0.206022 0.53571 -0.414443 0.065228 -0.0559168 0.2451 -0.366837 0.0268018 0.940361 0.83239 0.307705 0.402381 -0.742416 0.213938 -1.00496 -0.514226 -0.697858 0.608354 -0.701328 -0.24604 -0.721918 -0.868433 0.997849 -0.817113 -0.0584027 0.572004 0.22528 -0.407937 0.303214 0.0485744 -0.012834 0.928121 -0.402374 0.542715 -0.0246961 0.45401 -0.199543 0.783059 -0.459554 -0.152922 0.719237 0.763824 -1.05143 0.898654 0.0519907 -0.643948 -0.555693 0.102368 0.727999 -0.302214 -0.696564 -1.11131 -0.0903691 -0.833147 -0.739193 0.941268 0.804416 0.70184 
-0.466669 0.0893521 -0.249586 0.520497 -0.0130781 0.256026 0.14217 -0.922188 -0.133614 0.86367 0.812217 0.387612 -0.477653 0.477069 0.281843 -0.291903 0.401368 -0.700265 -0.145412 0.76015 0.649361 -0.339326 -0.547473 0.786745 -0.335334 0.370023 0.912937 0.10983 0.314608 0.467612 -0.205148 0.741563 -0.203127 0.629534 0.392167 0.821944 -0.0350187 -0.585779 0.912957 0.840257 -0.782866 0.691877 0.282161 -0.136093 0.236872 -0.343673 0.677501 -0.459313 -0.262872 -0.547787 -0.624934 -0.312221 0.13435 -0.358501 -0.714835 0.813608 -0.663891 -0.846678 -0.00911187 0.557861 0.803414 0.870008 0.36889 -0.233623 
0.499542 0.025205 -0.341078 -0.482099 0.130828 -0.82441 -0.436844 0.799534 -0.421341 0.544229 -1.04353 0.240025 -0.879932 0.900208 -1.20313 0.0431268 -0.376433 -0.552088 0.569975 0.465309 0.275571 0.93481 0.306595 0.51947 -0.844005 -0.696563 -0.101148 -1.13561 -0.860187 -0.871204 -0.161427 0.751535 0.146637 0.511162 -0.805111 -0.605893 0.999987 -0.608772 0.970802 -0.596623 0.917412 -0.960971 0.74108 -0.860268 -0.823827 0.988299 0.0834703 -0.647833 -0.933785 -0.21662 0.826053 0.610525 -0.611379 -0.297446 0.0807465 -0.0948483 0.549868 -0.683512 0.30222 0.555249 -0.349294 0.87079 0.153942 0.755228 
0.495619 -0.0300581 -0.929158 0.48576 0.704626 1.1902 0.611395 0.464866 0.648762 0.530334 1.0212 1.21607 0.399641 -0.00548296 -0.482592 0.660024 0.48781 -0.813798 0.325035 -0.503912 0.296516 -0.541726 0.373562 -0.366266 -0.494667 -0.623313 -0.870179 0.609419 -0.552687 0.582779 0.105639 0.869847 -0.439916 0.0922138 0.388136 -0.933958 -0.0570331 0.202509 0.697746 -0.337502 -0.249112 0.736511 -0.130973 -0.993537 -0.36442 0.0548016 0.770801 -0.457988 0.683768 -0.0340994 -0.0361284 -0.49682 0.591061 -0.113346 0.21415 -0.918271 -0.347126 0.375407 0.0721005 0.234619 -0.28172 -0.630755 0.218212 0.254316 
0.461459 -0.353083 0.480877 -0.595574 0.879978 0.454928 0.237459 -0.485469 0.0761498 -0.824713 -0.428381 0.810909 0.416979 -0.81252 -0.777449 -0.276798 0.127736 0.218636 0.358735 -0.422444 0.55748 -0.423241 -0.326457 -0.620498 0.999532 -0.992843 0.654782 -0.270428 -0.623598 0.111517 0.996963 0.944237 0.529743 0.398151 -0.776361 0.371572 -0.232336 0.565976 0.87365 0.832546 0.80202 -0.523023 0.587314 0.0960841 -0.405423 0.727483 0.713789 0.822187 0.142839 0.152399 -0.674487 -0.577158 0.705756 0.163319 -0.0202599 0.697884 -0.124807 -0.325692 -0.639158 0.331447 0.62119 -0.721884 0.206218 -0.0151566 
0.676267 0.438673 -0.643585 -0.556069 -0.0278823 -0.662697 -0.755518 -0.279115 -0.227867 0.863791 0.856326 0.247368 0.663114 0.636255 -0.00785116 -0.330057 -0.211346 0.349875 0.243387 -0.482188 -0.689596 -0.85491 -0.820602 0.294415 -0.243043 -0.423461 -0.337228 -0.784216 -0.145345 0.995072 0.113375 -0.362701 0.317493 0.523556 0.0055148 -0.685456 0.766073 0.26876 0.0229772 -0.584313 0.180213 -0.0777209 0.659878 -0.211223 -0.511346 -0.347973 0.45872 0.351537 1.13529 -0.323514 0.795121 -0.727851 -0.134181 -0.860189 0.629965 0.548772 -0.412644 -0.765886 0.73107 0.405101 -0.881231 -0.10179 0.972934 0.415818 
-0.578234 -0.052212 0.730362 -0.812161 -0.807873 -0.173019 -0.396474 0.31424 0.685581 -0.736596 -0.848621 -0.908743 -0.051835 0.561737 0.384153 -0.11488 -0.761777 0.211486 0.151699 0.0597984 0.216028 -0.276166 -0.391429 0.777447 -0.00960624 -0.660359 0.219458 0.0998365 0.237851 0.272787 -0.553948 0.765993 -0.85982 -0.802325 0.873388 -0.660701 -0.0365333 -0.549018 0.641087 -0.418343 -0.236658 0.826436 -0.311498 0.629817 0.318292 -0.927345 -0.485062 0.611341 0.372257 0.672207 -0.383687 -0.557981 -0.552063 0.295154 -0.707938 0.34921 0.564525 0.471126 -0.599295 -0.197625 -0.34128 -0.131983 -0.538008 -0.228504 
-0.782294 -0.97843 -0.0388042 -1.02422 -0.201422 0.350561 -0.963597 0.262072 -0.343673 0.34203 0.476362 1.16754 -0.166823 0.619571 0.703887 -0.376099 0.0206321 -0.955777 0.0915412 0.650972 -0.120161 0.285385 0.00935134 -0.198582 -0.40048 0.38871 0.490927 0.647701 -0.694248 -0.6537 -0.788611 0.626609 -0.624767 -0.162243 0.0424486 0.0859205 -0.997749 -0.971153 -0.636041 -0.558966 0.272921 1.0216 -0.637678 -0.312365 -0.115851 0.546233 0.410924 -0.364963 1.18476 -0.62747 -0.82193 0.300755 0.774331 1.0659 0.785385 -0.617777 -0.38605 0.114679 0.547838 -0.0890122 0.157505 1.0521 -0.533762 0.828251 
0.102886 0.844535 -0.0111862 0.0979311 0.916407 0.669673 0.505948 0.189744 0.280644 1.03331 0.881565 -0.336346 0.848403 0.178313 0.237029 0.518647 0.514561 0.622033 -0.448809 0.208758 -0.0221084 -0.666091 0.563302 0.730171 0.755809 0.373883 -0.19512 0.312009 0.193798 0.54444 0.16138 -0.59694 0.158043 -0.934073 0.375135 0.0363013 0.665218 0.0475272 -0.787156 -0.02038 0.0988841 -0.818211 0.628703 -0.230683 0.306461 -0.235315 -0.817533 -0.0996152 -0.318653 -0.186467 -0.965087 0.251202 0.0808216 0.847946 0.215697 -0.106515 -0.218785 1.14368 -0.882554 -0.888389 0.493173 0.19456 -0.554795 -0.560424 

0.255832 0.783639 0.479436 -0.0685672 -0.124021 0.684853 0.861497 0.836301 0.739724 
0.536401 -0.327086 0.0822298 -0.541835 -0.0374041 0.885288 -0.0522364 0.697783 0.936838 
-0.633815 -0.100158 0.570668 0.481485 0.809562 -0.487665 0.511243 0.915465 -0.351123 
-0.190413 0.136107 0.109975 0.23469 -0.602114 -0.226533 -0.248295 0.16215 0.838431 
-0.661192 0.16204 0.718537 -0.787083 -0.254564 -0.601995 0.281789 0.175756 0.321908 
-0.468813 -1.14879 -0.354884 -0.265632 -0.566717 -1.57538 -0.556239 -1.18932 0.47591 
0.0108792 0.52701 0.67361 0.873537 -0.645649 -0.235685 -0.0251559 0.503383 0.244458 
0.917297 -0.813691 -0.442217 0.721537 -0.278204 0.64244 0.397421 -0.0825945 -0.567084 
0.53185 -0.878881 0.425004 -0.165927 0.409318 0.0508672 -0.781595 -0.635948 -0.882266 
-0.597596 0.252948 -0.671073 -0.746665 -0.544902 0.893849 -0.972315 -0.678372 -0.761365 
-0.37771 0.157031 0.478058 -0.968143 0.199214 -1.34501 -0.312079 -0.0805536 -0.316024 
-0.655127 -0.77663 0.616492 0.0202777 -0.650861 -1.29954 -0.331656 0.535796 0.241222 
-0.699182 0.585661 -1.18085 -0.192384 -0.6588 0.0855791 0.0774443 -0.561752 0.34374 
0.293424 -0.317035 -0.899664 0.533402 0.60666 0.397426 0.363843 0.808374 -0.374121 
0.496408 -0.402726 0.579774 -0.751988 0.183884 -1.02156 -0.797127 -0.685897 -0.518711 
-0.727659 0.178237 -0.883895 0.779106 0.891003 -0.887956 0.850439 -0.0619 -0.486062 
0.167622 -0.661799 0.107134 -0.0833942 0.631306 0.5525 0.0527481 0.161451 0.457241 
-0.549529 -0.473352 0.262315 0.0693211 -0.969726 0.863036 -0.310106 -0.59329 0.0396328 
-0.198029 -0.393894 0.34706 0.267174 -0.119971 -0.461956 0.386308 -0.346588 -0.590199 
0.504867 -0.624633 0.354088 -0.981273 0.678215 0.666705 0.0904351 -0.394603 0.210135 
-0.0926533 0.469074 -0.563484 -0.493941 -0.866712 -0.027696 0.605168 0.0525145 -0.16241 
0.642662 0.917914 0.473494 -0.312081 -0.280116 -0.912169 -0.952274 -0.989848 -0.0254917 
-0.486447 0.411844 0.601897 0.0146766 -0.064942 -0.843484 -0.622315 -0.033318 0.833532 
-0.913211 -0.831178 -0.510283 0.42271 0.222482 -0.814283 0.92313 0.734938 -0.667812 
-0.440671 0.371645 0.351947 -1.17825 0.129812 0.2541 0.36461 0.67004 -0.999599 
0.555261 0.792592 -0.840858 -0.629656 -0.526682 0.410533 -0.888182 0.454316 -0.54511 
-0.672176 0.697644 0.49553 -0.827132 0.947927 0.642637 -0.456245 0.328642 -0.249437 
-0.511614 0.20377 -0.62764 -0.0107539 -0.767733 -1.06477 -0.34708 -0.790352 0.147078 
-0.771082 0.761366 0.164899 -0.578274 0.336651 0.0577697 -0.375313 0.886444 0.536411 
-0.801452 -1.0342 -0.111169 -0.340145 -0.619507 -0.1056 -0.79889 -0.487194 -0.293448 
-1.12626 0.20136 -0.765183 -0.0980591 -0.834024 0.567094 0.539636 0.179885 0.726466 
0.709514 -1.18093 -0.981829 -0.151214 -0.667334 0.225944 -1.01805 -0.453572 -0.104472 
0.276819 0.400679 0.0788268 -0.18677 0.644852 0.155357 0.843102 -0.556548 0.578487 
-0.253735 -0.258431 -0.807078 0.61377 -0.227252 0.488545 0.850849 0.692622 0.643093 
0.287705 -0.0748709 -0.165026 -0.0580084 -0.0288429 -0.42917 0.0447506 -1.15277 0.140012 
0.19677 -0.748711 -0.702355 -0.749887 0.554254 0.59815 0.449001 -0.639211 0.309389 
-0.374021 -0.788847 0.776866 -0.795533 -0.0404457 -0.459359 -0.600552 -0.424527 0.315286 
0.894002 -0.563529 0.0138097 0.556922 0.872698 -0.715763 -0.410764 0.121086 0.285417 
0.732082 -0.744408 0.32212 0.271496 0.660011 0.364424 0.395171 -1.17086 -0.0228449 
0.229974 0.426987 0.540741 -0.614951 -0.839105 0.332823 -0.71497 -0.814223 -0.376847 
-0.207631 -0.49923 0.254323 -0.845451 -0.375127 0.681843 0.0154841 -0.928213 0.368907 
0.484722 -0.280968 -0.396057 -0.512514 -0.467973 -0.498825 -0.941454 0.762859 -0.234882 
0.762463 0.349699 -0.0786967 -0.0567224 -0.415137 -0.551169 -0.507858 0.153442 -0.397662 
-0.74784 0.498975 -0.0366031 -0.0439985 -0.614818 0.718186 -0.733219 -0.413543 -0.630767 
-1.0072 0.73097 -0.429545 0.500289 0.296417 0.356948 -0.705339 -0.928739 0.851558 
0.397076 -0.983634 0.684296 -0.605591 0.970719 0.0161363 0.163448 -0.124027 0.464659 
0.764253 0.42356 -0.210736 -0.613027 0.675893 -0.802361 0.345991 -0.353462 -0.309779 
0.0663726 -0.099626 0.27098 0.300822 -0.0936461 0.0861813 -1.02855 -0.526009 -0.661559 
-0.251763 -0.831305 -1.02247 -0.404658 -0.668389 -1.16722 -0.587326 -0.593629 -1.12747 
-0.898837 -0.810832 0.619931 0.759551 0.973863 0.0427681 -0.430257 -0.645132 -0.281264 
-0.127822 0.587985 0.392375 0.607646 -0.220757 -0.748393 -0.216859 -1.00132 0.0867421 
0.701383 -0.878234 0.608647 -0.71064 0.603486 -0.461771 -0.287492 -0.171818 -0.059084 
-0.0790357 0.539223 0.535471 -1.06434 -1.00974 -1.40933 0.475468 0.594092 -1.3652 
-0.616791 -1.15512 -0.813001 0.0999361 0.185877 -1.19586 -0.520368 -0.565402 -0.657523 
0.01526 0.231288 -0.00458519 -0.795224 0.570475 -0.150048 -1.17847 0.674966 -0.467813 
-0.230982 -0.283529 0.861709 0.833702 -0.793513 0.801793 0.751209 -0.616456 0.842809 
0.762699 -0.822621 0.618709 0.938263 0.0183115 -0.990289 -0.628251 -0.431557 0.243294 
-0.867189 0.341123 -1.17169 0.223626 -0.339565 0.573588 -0.58189 0.0134604 0.131154 
0.892566 -0.00566553 0.226018 -0.293137 -0.998075 0.545685 -0.466148 0.728895 -1.03255 
-0.479877 0.468258 -0.410392 -0.616188 0.457336 -0.270733 -1.07215 0.272198 0.654978 
-1.03565 0.435371 -0.670033 0.125432 -0.718633 0.657807 0.113853 0.512162 -0.754556 
0.0689175 -0.969523 0.63649 -0.590761 -0.796716 -0.169798 0.502482 0.00441241 -0.327998 
0.714958 0.822023 -0.219726 0.92088 -0.64846 -0.623214 -0.49895 -0.310351 0.836167 
0.25421 -0.281868 0.229489 0.0332232 -0.243777 -0.000687518 0.37548 -0.968299 0.285749 

-0.693568 -0.0564477 -0.204279 0.682317 -0.479021 1.08942 -0.158596 -0.283958 0.812295 -0.603975 0.0220832 -0.00361494 -0.207162 -0.635994 -0.204754 -0.950849 -0.994918 -0.13246 -0.549841 -0.266284 0.140506 -0.740673 -1.00136 -0.710108 0.212473 -0.154161 -0.133832 -0.213945 -0.550713 0.362265 0.79217 0.904865 -0.52913 -0.565812 0.333589 -0.0960417 -0.815013 -0.055687 0.872835 0.769355 0.365324 -0.160675 -0.570518 -0.439065 -0.553686 -0.295249 -0.290526 0.253408 1.17361 0.188842 0.993305 0.607051 0.274184 1.70468 0.374304 -0.220667 -0.030635 -0.652552 -0.0838127 0.156073 0.27091 0.237259 0.24597 -0.825642 

0.727059 -0.694923 0.0482366 -1.10703 0.555622 -0.320853 0.595379 -0.442062 0.222641 