0.680375 -0.231717 0.578888 0.59492 0.809382 -0.626105 -0.303546 0.536459 -0.458692 0.10794 -0.059575 0.257742 -0.255183 0.0268018 0.904459 0.83239 0.260497 0.434594 -0.716795 0.213938 -0.966796 -0.514226 -0.719448 0.613128 -0.702782 -0.198111 -0.745859 -0.776104 0.997849 -0.597259 0.0200503 0.655502 0.22528 -0.407937 0.285501 0.0241872 -0.012834 0.947331 -0.417318 0.53352 0.05349 0.530519 -0.196683 0.783059 -0.413683 -0.295083 0.615449 0.838171 -0.86072 0.894176 0.0519907 -0.840267 -0.611712 0.312816 0.780465 -0.302214 -0.853486 -0.948918 -0.0845965 -0.887886 -0.513714 0.941268 0.804416 0.70184 
-0.466669 0.100479 -0.26267 0.522579 0.0384356 0.357698 0.0363181 -0.921439 -0.109969 0.86367 0.875331 0.441905 -0.446831 0.477069 0.279958 -0.291926 0.387135 -0.667626 -0.119791 0.76015 0.657629 -0.339326 -0.548152 0.782988 -0.283703 0.372697 0.917307 0.170988 0.31383 0.752206 -0.11457 0.872232 -0.203218 0.629534 0.357969 0.847517 -0.0350187 -0.569606 0.903355 0.849006 -0.70468 0.771433 0.279096 -0.136467 0.219091 -0.437881 0.572004 -0.385177 -0.105265 -0.542887 -0.624934 -0.435152 0.107646 -0.152017 -0.660786 0.81334 -0.811829 -0.759258 -0.00911187 0.535253 0.959645 0.870008 0.368944 -0.233623 
0.499542 -0.284014 -0.397669 -0.537607 0.155779 -0.533917 -0.667214 0.464297 -0.763583 0.586941 -0.685288 0.490143 -0.836286 0.900208 -0.894941 0.0431502 -0.658964 -0.520425 0.595596 0.465309 0.31328 0.93481 0.285005 0.522966 -0.828681 -0.729553 0.0360493 -0.837243 -0.859286 -0.626137 -0.0843397 0.615062 0.146621 0.511162 -0.885796 -0.711139 0.999987 -0.589952 0.777061 -0.757923 0.995598 -0.901194 0.744073 -0.855016 -0.97165 0.846138 0.187784 -0.638927 -0.674877 -0.221005 0.826053 0.627012 -0.275969 0.0892168 0.15886 -0.0945801 0.392946 -0.78976 0.061616 0.500286 -0.381855 0.984457 0.153888 0.755228 
0.495619 0.278334 -0.94188 0.497564 0.680415 0.871965 0.720489 0.662075 0.973099 0.487622 0.821127 0.967191 0.318524 -0.00548296 -0.672064 0.66 0.788825 -0.846011 0.299414 -0.503912 0.258386 -0.541726 0.395151 -0.371048 -0.326265 -0.537144 -0.846211 0.259862 -0.552664 0.336057 0.0272091 0.965673 -0.439916 0.0922138 0.428131 -0.749013 -0.0570331 0.183279 0.890977 -0.0889501 -0.327298 0.704678 -0.133827 -0.993537 -0.329823 0.196963 0.666487 -0.532352 0.351182 -0.0296568 -0.0361284 -0.37771 0.420335 -0.621252 0.243646 -0.918271 -0.190204 0.380926 0.347873 0.289358 -0.315494 -0.630755 0.218212 0.254316 
0.3758 -0.410994 0.523131 -0.567708 0.931234 0.529189 0.305436 -0.485469 -0.00222579 -0.923398 -0.354435 0.754768 0.333258 -0.81252 -0.777449 -0.276822 0.164767 0.0902115 0.333113 -0.422444 0.556289 -0.423241 -0.346804 -0.528719 0.945161 -0.993485 0.659153 -0.343334 -0.624499 -0.066655 0.874691 0.772284 0.508194 0.398151 -0.76804 0.314472 -0.174898 0.634846 0.820758 0.76994 0.641128 -0.583595 0.653457 0.0957582 -0.42545 0.809865 0.819286 0.745063 -0.00257233 0.153581 -0.674487 -0.380277 0.833094 0.139096 -0.0726757 0.597861 -0.0262162 -0.428854 -0.639158 0.420174 0.361991 -0.721884 0.206272 -0.0151566 
0.676267 0.42767 -0.630889 -0.558029 -0.0167533 -0.779442 -0.697088 -0.279115 -0.36527 0.863791 0.802762 0.244191 0.689577 0.636255 -0.00785116 -0.330033 -0.222766 0.317286 0.217766 -0.482188 -0.696523 -0.85491 -0.778215 0.298603 -0.288687 -0.422818 -0.342059 -0.811202 -0.144797 0.834457 0.161425 -0.492563 0.317493 0.523556 -0.014619 -0.710457 0.766073 0.25273 0.0325849 -0.593261 0.115121 -0.15691 0.66299 -0.210863 -0.491046 -0.347973 0.45872 0.277356 0.969459 -0.328559 0.795121 -0.740229 -0.173916 -1.00343 0.566564 0.548579 -0.394473 -0.759255 0.73107 0.427934 -0.891448 -0.10179 0.972934 0.415818 
-0.578234 -0.0378403 0.717673 -0.810385 -0.784033 -0.227159 -0.415831 0.31424 0.619812 -0.736596 -0.87852 -0.893155 -0.0862174 0.561737 0.384153 -0.11488 -0.760545 0.179273 0.15727 0.0597984 0.198372 -0.276166 -0.391429 0.772672 -0.0246544 -0.660359 0.237588 0.0497081 0.237851 0.212147 -0.524452 0.66809 -0.85982 -0.802325 0.839717 -0.646895 -0.0365333 -0.558956 0.646317 -0.403319 -0.285614 0.765864 -0.309286 0.629817 0.310229 -0.927345 -0.485062 0.554707 0.248882 0.664741 -0.383687 -0.557981 -0.594752 0.226502 -0.780535 0.34921 0.546354 0.43487 -0.599295 -0.175703 -0.369003 -0.131983 -0.538008 -0.228504 
0.15135 -0.534397 0.0685413 -0.898816 -0.240969 -0.292194 -0.264682 0.474815 -0.449758 0.195422 0.00852756 0.839182 0.402579 0.619571 0.395696 -0.376076 0.280393 -0.86191 0.0659197 0.687819 0.151249 0.285385 0.0431184 -0.420054 -0.372213 0.438377 0.599423 0.361917 -0.62346 -1.0315 -0.830044 0.43702 -0.522207 0.237917 0.468003 0.192762 -0.96211 -1.01433 -0.277072 -0.443881 0.393443 0.705802 -0.77027 -0.316965 0.354708 0.758019 0.30661 -0.418267 0.768889 -0.577948 -0.625926 -0.0273112 0.553979 0.0915251 0.80834 -0.282944 -0.0615625 0.382946 0.737848 0.0429774 0.420235 0.864969 -0.414432 0.853152 
0.0172275 0.443246 0.0310679 -0.00574233 0.945856 0.741342 0.410044 0.0583982 0.184033 1.19378 1.05197 -0.350917 0.66958 0.178313 0.275542 0.518624 0.562228 0.463741 -0.474431 0.208758 0.0158852 -0.666091 0.584892 1.22376 0.818013 0.216815 -0.170664 0.217669 0.12301 0.55798 0.0446774 -0.875501 0.0554826 -0.934073 0.263548 -0.0207981 0.62958 0.0558459 -0.991431 -0.112299 -0.145433 -0.893692 0.75528 -0.231009 0.283569 -0.0957552 -0.712036 -0.0619835 -0.431887 -0.0685769 -1.02488 0.405195 0.29157 1.09368 0.0700028 -0.441348 -0.189872 0.976033 -0.882554 -0.799662 0.400047 0.193806 -0.674125 -0.560424 

0.242295 0.81457 0.44574 -0.0902643 -0.123567 0.6536 0.873614 0.877475 0.779116 
0.366446 -0.430189 -0.142457 -0.651242 -0.0464213 0.668171 -0.131535 0.686489 0.629136 
-0.6372 -0.0921132 0.553004 0.519218 0.809446 -0.520868 0.514461 0.92326 -0.339941 
-0.363218 -0.0537026 -0.199824 0.0910883 -0.620605 -0.300525 -0.399926 0.202991 0.456101 
-0.62614 0.179252 0.638946 -0.821794 -0.253054 -0.801862 0.282186 0.168303 0.217195 
8.75096e-05 -1.06351 -0.141811 -0.0723094 -0.516221 -1.32405 -0.402255 -1.06577 0.486427 
0.0606587 0.392485 0.581097 0.731223 -0.655463 -0.34019 -0.108582 0.516621 0.031387 
0.91668 -0.692838 -0.418329 0.764139 -0.267976 0.785571 0.494527 -0.05368 -0.465264 
0.718401 -0.927924 0.490951 0.0689209 0.435309 0.529227 -0.742288 -0.526929 -0.96806 
-0.636924 0.241999 -0.684332 -0.756264 -0.545011 0.851589 -0.97456 -0.693857 -0.826275 
-0.146329 0.246048 0.747089 -0.847785 0.228259 -0.921879 -0.223513 -0.031148 -0.258476 
-0.413645 -0.511863 0.824781 0.132329 -0.618582 -0.930567 -0.136313 0.627807 0.506765 
-0.425865 0.911149 -1.04559 -0.0103886 -0.599189 0.0952308 0.349711 -0.410051 0.606992 
0.293424 -0.317035 -0.899664 0.533402 0.60666 0.397426 0.363843 0.808374 -0.374121 
0.504957 -0.404134 0.618741 -0.621873 0.182221 -0.893121 -0.797092 -0.68545 -0.511703 
-0.727659 0.178236 -0.8839 0.779092 0.891003 -0.887956 0.850439 -0.0619 -0.486062 
0.170991 -0.68685 0.166468 -0.0645408 0.631098 0.851652 0.0483822 0.164336 0.458011 
-0.60256 -0.485312 0.105322 0.0229203 -0.966945 0.631538 -0.313116 -0.608681 -0.189637 
-0.198029 -0.385663 0.359808 0.290268 -0.113322 -0.461955 0.406372 -0.334216 -0.570952 
0.518417 -0.483777 0.367148 -0.967645 0.690246 0.704822 0.201525 -0.357045 0.33592 
-0.0479748 0.549119 -0.603936 -0.604605 -0.855244 -0.16893 0.681804 0.158444 -0.0360475 
0.642662 0.917914 0.473494 -0.312081 -0.280116 -0.912169 -0.952274 -0.989848 -0.0254917 
-0.414229 0.411706 0.640292 0.0148191 -0.0650583 -0.843484 -0.618034 -0.0327034 0.846761 
-0.918231 -0.834948 -0.591802 0.380077 0.222405 -0.881867 0.917194 0.733583 -0.77528 
-0.23172 0.347595 0.310132 -1.15007 0.155405 -0.00442549 0.385765 0.754119 -1.12742 
0.520196 0.872304 -0.818819 -0.455212 -0.521643 0.56889 -0.820382 0.470087 -0.489051 
-0.661555 0.851039 0.512401 -0.833968 0.96208 0.685977 -0.329989 0.380783 -0.0919387 
-0.138693 0.272768 -0.356922 0.158612 -0.740048 -0.838663 -0.255464 -0.726198 0.317822 
-0.771088 0.760575 0.12977 -0.590729 0.33662 0.0573558 -0.375356 0.886244 0.490024 
-0.865494 -1.0217 -0.222586 -0.365693 -0.577486 -0.422665 -0.725164 -0.424163 -0.482955 
-1.15493 0.127565 -1.05613 -0.230944 -0.834294 0.0907094 0.444573 0.2647 0.448215 
0.650286 -0.996398 -1.00409 -0.0332467 -0.647774 0.722912 -0.883988 -0.291454 0.116959 
0.276812 0.400594 0.0522997 -0.196253 0.644828 0.0899868 0.841154 -0.556779 0.543602 
-0.251598 -0.236225 -0.805019 0.615919 -0.225355 0.494554 0.868362 0.698543 0.662924 
0.290064 0.165376 -0.0826768 0.172724 0.00319147 0.030474 0.26765 -1.01665 0.366746 
0.196175 -0.74542 -0.71572 -0.625894 0.55482 0.660844 0.464838 -0.632272 0.332571 
-0.374036 -0.788855 0.690169 -0.826331 -0.040525 -0.500898 -0.601802 -0.424769 0.198681 
0.893536 -0.568248 -0.0866281 0.517765 0.872609 -0.875001 -0.416296 0.12095 0.158899 
0.668204 -0.694606 0.210012 0.131536 0.662541 0.440054 0.412657 -1.01871 0.0815724 
0.0767944 0.341392 0.306254 -0.587606 -0.848985 0.374672 -0.782154 -0.740321 -0.55975 
-0.171479 -0.289307 0.249406 -0.818082 -0.349464 0.618796 0.175234 -0.828618 0.5615 
0.499039 -0.202813 -0.266673 -0.21302 -0.455621 0.19922 -0.864113 0.803092 -0.135712 
0.753785 0.335645 -0.153927 -0.0903065 -0.415217 -0.735835 -0.515708 0.150086 -0.497617 
-0.74784 0.498202 -0.0404602 -0.0286104 -0.615028 0.717732 -0.733241 -0.413824 -0.630845 
-1.02165 0.770317 -0.433131 0.58303 0.300935 0.354696 -0.659236 -0.918512 0.901497 
0.550115 -0.774071 0.72253 -0.585487 0.988392 0.0722291 0.335817 -0.0683305 0.657093 
0.784648 0.423812 -0.189465 -0.613015 0.675972 -0.690579 0.347296 -0.352297 -0.305607 
0.0302607 -0.119926 0.180869 0.381563 -0.080468 -0.136675 -1.02137 -0.485211 -0.736363 
0.284431 -0.234445 -0.635854 0.237794 -0.563952 -0.400673 -0.075232 -0.226339 -0.405882 
-0.906678 -0.820017 0.510267 0.702959 0.973104 -0.0820963 -0.44332 -0.643892 -0.421603 
-0.193869 0.579412 0.184258 0.486976 -0.230186 -0.796378 -0.268852 -0.873522 0.0399448 
0.81371 -0.852704 0.605462 -0.727304 0.604048 -0.498775 -0.253725 -0.150307 -0.124812 
0.437501 0.852791 0.868312 -0.881932 -0.959869 -0.980635 0.745304 0.765533 -0.963435 
-0.47453 -0.868845 -0.951049 0.354707 0.242116 -1.40551 -0.238987 -0.348276 -0.594913 
0.0726037 0.569471 0.0277333 -0.636894 0.604545 0.219365 -0.938908 0.843509 -0.162813 
-0.230988 -0.283842 0.831403 0.823097 -0.79354 0.767239 0.750155 -0.616615 0.802849 
0.845908 -0.827671 0.605914 0.917659 0.0174639 -1.00094 -0.629384 -0.43127 0.206756 
-0.564643 0.44014 -0.969545 0.384651 -0.299172 0.670736 -0.447848 0.0766441 0.268795 
0.894611 0.211 0.241307 -0.152456 -0.983652 0.969987 -0.307859 0.827618 -0.823227 
-0.510326 0.521442 -0.480231 -0.675105 0.458016 -0.277944 -1.0527 0.355337 0.739922 
-1.15697 0.579981 -0.836935 0.137138 -0.705936 0.512332 0.227369 0.636598 -0.670783 
0.0631565 -0.705246 0.641184 -0.559033 -0.77443 -0.12467 0.711473 0.0760543 -0.103663 
0.700817 0.796115 -0.250381 0.900104 -0.652218 -0.638273 -0.52745 -0.294003 0.817965 
0.25576 -0.265763 0.230982 0.0347815 -0.242402 0.00367067 0.388182 -0.964005 0.300131 

-0.349613 -0.207171 -0.0464823 0.597155 -0.449572 0.70956 -0.0730282 -0.201811 0.474285 -0.443511 -0.169379 -0.331968 0.087935 -0.635994 -0.512945 -0.950872 -0.712387 -0.290752 -0.575463 -0.229437 0.502502 -0.740673 -0.979766 -0.216517 0.382963 -0.0362634 -0.0724785 -0.512313 -0.621502 0.683178 0.681574 0.726261 -0.63169 -0.165653 0.232595 -0.103399 -0.850651 -0.0473683 0.563109 0.642311 0.103789 -0.457851 -0.443941 -0.444317 -0.0948984 -0.0834629 -0.39484 0.437214 0.917186 0.324385 0.842121 0.32296 0.185562 1.66923 0.425659 -0.5555 -0.033879 -0.369394 0.0937454 0.630094 0.739648 0.0225191 -0.0737201 -0.800741 

0.697013 -0.537359 -0.114047 -1.0414 0.571145 -0.280497 0.702954 -0.276036 0.25458 