0.726732 0.544719 0.981841 -0.692137 0.574265 -1.03194 -0.878037 -0.535536 0.81587 0.284726 0.717457 0.821201 0.602274 -0.327065 -0.121678 -0.970759 -0.8404 1.04621 -0.343975 -0.810555 0.290299 0.416539 0.158523 -0.224921 -0.251702 0.0038396 -0.559361 -0.830946 1.16891 -1.04006 0.972969 0.8295 0.9175 0.886625 -0.661407 0.391904 0.755611 -0.684392 0.868604 0.64731 0.565744 0.710164 0.297142 0.153707 -0.614626 -0.529813 0.197445 -0.404886 -0.768411 0.870825 -0.203292 0.582157 0.397358 0.917913 -0.675194 -0.934317 -0.129232 -0.265907 -0.746412 -0.0374787 -0.25142 -0.982106 -0.284546 -0.53575 0.831684 -0.16196 1.14752 0.770551 0.115644 0.994734 0.432013 -0.166745 0.605146 -0.201858 1.08752 -0.880326 0.132044 0.114372 -0.403412 0.404912 -0.129583 0.382988 -0.048792 -0.825471 0.303934 0.33418 -0.708718 -0.73562 -0.99634 -0.542687 0.173991 -0.220906 -0.303514 0.76327 0.342233 -0.364708 -0.315623 0.264631 -0.715145 0.758822 0.185661 0.592687 -0.40753 -0.162822 -0.506614 -0.47029 -0.117204 0.719615 0.639403 0.473555 0.0375202 -0.399147 -0.187881 -0.969201 -0.01952 -0.839165 0.31937 0.118429 -0.494267 0.523469 0.695238 0.805694 -0.773492 -0.467727 0.360087 0.646799 -0.046376 -0.869625 
-0.0833862 0.13261 -0.796094 -1.00587 -0.00541408 -0.480378 0.0422612 0.454707 0.0789902 0.767894 0.0551365 -0.237457 0.356584 -0.991768 0.256756 -0.769622 -0.817197 -0.598442 -0.724439 0.51789 0.459691 -0.166203 -0.0153059 0.20109 -0.558892 0.119848 0.561337 0.809994 -0.233226 -0.507201 1.06518 0.761485 0.85097 1.10147 0.923533 -0.25797 -0.459817 -0.145022 -0.706916 0.695271 -0.211404 0.303913 -0.691416 -0.969376 0.33886 0.964592 -0.891995 0.577383 -0.807874 -0.367155 0.025435 0.672452 0.331531 0.917096 -0.371096 0.801222 0.156969 -0.659734 0.633822 0.898689 -0.102381 0.482842 0.626427 -0.539612 0.547222 0.437908 0.514088 -0.754063 -0.704241 0.616683 0.861083 -0.0519545 0.0569205 -0.493235 -0.148013 -0.590473 -0.792667 0.109277 0.792354 -0.547138 0.697197 -0.0258981 0.897872 0.0693153 -0.111688 -0.237439 -0.0554904 -0.878551 0.0920379 -0.364634 -0.883424 0.920856 -0.784445 0.633917 -0.456636 0.833753 0.100507 1.03623 0.933822 0.33079 0.489848 0.752722 -0.795643 -0.668764 -0.760705 0.204517 -0.210935 -0.314005 -0.471113 -0.292802 -0.210614 -0.858372 0.69718 -0.187111 0.350412 -0.434913 0.529612 -0.87107 -0.255776 -0.08505 -0.206262 -0.0740176 -0.400321 0.134979 -0.732994 0.272395 -0.197179 0.494954 
0.155297 -0.410973 -0.257247 -0.329057 -0.585873 -0.0611265 0.184757 -0.300986 -0.907787 1.03126 0.118495 -0.569191 -0.287338 -0.758312 -0.349662 -0.562402 0.0385846 1.06956 0.14709 -0.351797 -0.748513 0.835779 0.145363 0.0731513 -0.450292 0.941006 -1.03463 0.0141057 0.224011 -0.0330214 -0.413407 -0.722037 0.458676 0.402867 -0.0780388 -0.990756 -0.731325 -0.783827 -0.412976 -0.697533 -0.950602 -0.923019 0.017877 -0.113285 -0.831902 0.53437 0.188715 0.232143 0.350942 -0.887197 0.952923 0.570245 1.13288 0.203136 -0.130016 -0.451167 0.165811 -0.123613 0.561512 -0.724321 0.507438 -0.818223 -0.413553 0.194981 0.314742 0.64729 -0.0229589 0.639065 0.821277 0.834262 -0.817447 1.09157 0.927493 0.0572662 -0.104423 -0.87195 -0.476372 0.965874 0.591835 -0.916991 -0.833396 0.180205 0.790211 -0.865234 -0.466169 -0.678789 -0.107421 0.595174 0.176006 -0.647238 1.00937 -0.351404 -0.599915 -0.515878 0.690883 0.901513 -0.816666 -0.477179 0.657502 0.73516 -0.608516 0.938399 0.742058 -0.708655 -0.0312435 -0.187165 -0.623592 0.597743 -0.543342 0.662132 0.805896 -0.191751 -0.0529289 0.456885 -0.130961 0.497051 0.939197 0.600341 -0.0101861 -0.401795 -1.04725 0.0282665 0.400796 -0.471846 0.52517 0.0365317 -0.412305 0.641838 
0.771057 -0.890589 0.585137 -0.790357 -0.678775 0.449974 -0.609951 0.306753 0.991008 -0.309327 -0.109076 -0.613457 -0.367534 -0.680229 0.220818 0.403289 0.554301 -1.13344 -0.169944 0.419402 0.728847 -0.863409 -0.528073 0.861996 0.10699 0.788032 -0.699338 -0.37267 -0.0727311 -0.23743 -0.820217 -0.463223 0.249897 0.875007 -0.258661 0.00602733 -0.177308 -0.0538602 -0.608668 -0.00174303 0.859472 0.109021 0.227532 -0.85652 0.460712 -0.489938 0.682214 0.00985984 -0.368579 -0.357935 -0.574928 -0.616399 -0.231556 -0.220237 -1.18867 1.08845 -0.401736 -0.805064 -0.564198 0.478318 0.281148 -0.392446 0.988644 -0.84395 -0.4815 -0.566003 0.394296 0.522014 0.530765 0.873249 -0.697545 0.259376 -0.00862083 0.72578 0.43879 -0.797727 -0.883247 0.0931089 0.344728 -0.283355 0.761254 0.858079 -0.0895712 -0.4372 -0.325089 0.382477 -0.885482 0.565127 0.468575 -0.348967 -0.215692 -0.538697 0.565438 -0.0805841 -0.532791 0.835977 0.341679 -0.887289 0.197985 0.134863 0.775804 0.392071 -0.688552 -0.524432 0.0945726 0.536836 0.103698 0.568708 0.0184392 -0.615647 -0.803543 -0.318557 -0.607735 0.416844 0.116065 0.175596 -0.36347 0.810858 -0.34113 -0.632501 -0.584593 0.317817 -0.201181 0.706541 -0.858337 0.25393 0.404059 0.547651 
0.223286 -0.430304 -0.404758 0.0350321 -0.834194 -0.248473 0.837803 0.325392 -0.462978 -0.192992 -0.195464 0.404631 0.423563 0.0751646 -0.836448 0.851081 -0.428708 0.472759 -0.0472776 0.233653 0.0729465 0.700385 0.378784 0.435776 0.00977966 0.8929 0.170181 0.15501 0.00121369 -0.539245 -0.269554 -0.666642 0.0770229 0.225862 0.365763 0.194213 -1.04295 0.199785 -0.442473 -0.416276 -0.838603 0.210585 -1.10452 0.560797 -0.710037 -0.755036 0.281207 -0.123667 0.679394 -0.50634 -1.01147 -0.177713 -1.06813 0.330229 -0.9672 0.146778 0.298978 0.223833 -0.699154 -0.558994 0.868277 -0.0285749 -0.268975 -0.110239 -0.740248 -0.870714 -0.763168 -0.661908 0.312989 -0.321367 -0.237809 0.407348 0.877938 -0.195736 -0.203293 -0.841817 -0.0506947 -0.77878 -0.0525629 -0.274192 -0.266886 0.0934834 0.353864 -0.165978 -0.591502 0.631535 0.895624 0.686445 -0.107445 -0.808758 -0.775037 -0.187848 0.200526 -0.0446352 0.856858 0.331002 0.0357468 -0.827056 0.502345 -0.527486 -0.23119 -0.739953 0.726021 -0.462624 0.0682151 -0.379523 -0.169389 -0.854747 0.01853 0.836495 -0.3434 0.641947 0.00761909 -0.800844 -0.493584 0.364806 0.86572 -0.575838 0.209877 -0.0380492 -0.446622 0.391408 0.632605 0.653968 -0.797966 0.526801 -0.0554664 0.344503 
0.838189 -0.689924 0.551911 -0.561014 -0.313348 0.573095 -0.0325114 0.810868 -0.978539 0.826477 0.790879 -0.0560996 0.899656 -0.176823 -0.307074 -0.39693 -0.091649 0.200179 -0.845224 -0.259174 0.797789 0.3724 0.374239 -0.895401 -0.385007 0.119669 0.685039 -0.103863 -0.141886 -0.0195062 -0.679739 -0.719698 0.0272491 1.19147 -0.388338 0.794976 0.371724 0.800759 0.428035 0.410467 0.548884 0.411023 -0.222032 0.365934 -0.806715 0.125702 0.942667 0.0465552 -0.670749 0.774512 0.82602 0.84991 0.262485 0.354881 -0.795957 0.909775 -0.444931 0.898979 -0.307073 0.303665 -0.453718 0.0644353 0.667683 0.894456 -0.104624 -0.619954 0.333118 -0.800672 -0.762301 0.0416903 0.994838 0.844113 -0.432604 -0.486444 0.0704015 -0.316926 0.556257 -0.0225664 0.966232 -0.986615 -0.0314119 0.353513 0.87441 -0.769989 -0.0659426 0.933223 1.18725 0.581788 0.927757 -0.278793 -0.232421 -0.751253 0.69231 -0.629789 0.943087 -0.450379 -0.106456 0.19969 -0.016493 -0.0448786 -0.717754 0.0581718 -0.198806 -0.0772178 0.501082 1.20289 0.736858 0.317709 -0.116645 0.275413 0.40542 0.947924 0.00812676 0.186951 -0.995265 0.922799 0.378248 -0.872531 0.239428 -0.377669 -0.346852 -1.02054 0.192796 -0.671559 -0.387316 -0.157736 0.139945 0.333566 
-0.869669 -0.699897 -0.615733 -0.299566 0.047732 0.236461 0.674975 -0.413164 0.175382 0.549468 0.761949 -0.802989 -0.185387 0.249859 -0.810559 -1.03161 -0.704763 -0.730174 1.05129 0.689962 -0.79094 0.10993 -0.405379 0.0460407 0.206397 0.880509 0.534578 0.87387 -0.271868 -0.44142 0.139962 0.153311 -0.219499 0.306077 0.794126 -0.78847 -0.11179 0.491856 -0.355056 0.967642 -0.0948017 -0.189557 -0.90518 0.962276 0.846049 -0.779082 1.07017 -0.647917 -0.683816 0.982079 1.07338 -0.265105 0.153399 -0.3666 1.0987 -0.632702 -0.519685 0.40307 -0.64518 0.302522 -0.91591 0.669863 -0.591828 -0.0277481 0.052481 -0.620294 0.026667 0.909705 0.770972 0.900827 0.873707 -0.0241859 -0.62833 0.721154 -0.0632186 -0.760484 -0.804365 -0.150176 -0.323388 -0.365296 -0.384101 -0.357236 0.70507 0.798276 0.256153 0.274107 -0.634801 0.432084 -0.210683 -0.280382 -0.082939 0.0857477 -0.838628 0.51832 -0.888417 0.207089 0.690746 0.00629988 0.188374 0.49248 -0.0751391 0.0572116 -0.6057 0.553116 -0.0294831 0.206269 0.514788 -0.0401473 0.627792 -0.719296 0.728804 -0.559333 -0.3051 0.273965 -0.751898 0.932423 -0.326549 -0.449764 0.403247 0.307879 0.304796 -0.591979 -0.572284 0.49335 0.91714 -0.36924 -0.208533 0.628983 
0.652687 -0.757187 0.0297975 -0.320189 0.00199297 0.73273 0.708245 0.818285 -0.113931 0.330197 -0.139692 -0.446602 0.317192 -0.461497 0.195944 0.976386 0.578072 0.133327 0.887019 -0.865921 0.926129 0.185792 0.506656 0.151734 0.586917 -0.904998 -0.371511 0.523672 -0.422557 0.560192 0.0337035 -0.80104 0.444414 -0.701791 -0.324907 -0.427613 -0.812247 -0.465964 -0.74171 -0.155199 0.71375 0.184288 0.641687 0.136443 0.689911 -0.586283 0.244781 0.235131 0.852096 -0.15783 0.431806 0.690977 -0.870178 0.0335116 0.094148 0.683651 0.100161 0.631048 0.200204 0.661585 0.0573085 -0.477469 -1.05433 -0.234567 -0.157578 -0.186112 -0.116126 -0.325599 0.400664 0.283418 0.650824 0.11793 -0.426719 0.0235486 -0.718157 -0.843383 0.713633 0.540791 0.61845 0.510842 -0.531886 -0.097136 0.400525 -0.416997 0.954996 -0.795205 -0.732688 -0.060195 0.864905 0.483351 -0.43973 -0.114818 0.776663 -0.328829 0.431848 -0.408303 0.426239 -0.580697 0.489553 -0.262541 0.888199 0.204124 0.968027 -0.460326 -0.78731 -0.743103 -0.359863 0.706329 0.597122 -0.834927 0.466023 -0.883369 0.0608757 -0.305707 -0.49536 0.00992426 -0.0471809 -0.119581 0.784331 -0.573967 -0.685123 -0.766277 0.549635 -0.968652 0.171516 -0.139288 -0.165337 -0.542954 
0.270109 -0.905656 0.481067 0.0676379 0.413143 0.132573 0.602279 0.705205 0.455045 -0.796744 0.473932 0.357972 -0.649187 -0.161562 0.220504 0.429335 0.499567 1.14684 -0.690906 -0.617817 -0.427679 -0.805693 0.137847 -0.0331893 -0.259724 -0.271041 0.151282 0.748058 0.590054 -1.09389 -0.671649 0.0746438 -0.595771 0.373144 -0.568817 0.697637 -0.511208 0.768657 0.481757 -1.01482 -0.941866 -0.0826831 -0.0503281 -0.418628 0.758219 -0.301519 -1.17132 0.236956 -0.548784 -0.496303 0.726234 0.237789 -0.246337 -0.334934 -1.07293 0.31971 0.319802 0.115164 0.145076 -0.0547175 0.139602 0.268313 0.978054 0.265572 -0.386066 -0.779669 0.476728 0.528427 0.768342 -0.024227 0.288772 1.17527 0.570959 -0.523699 -0.312219 0.481815 0.0225718 -0.655172 -0.310761 0.432902 -0.207954 -0.494817 -0.481701 0.521668 0.187098 -0.568261 -0.0202232 -0.586201 0.657633 -0.738998 0.627386 -0.0420398 0.523661 0.47829 -0.645947 -0.76332 0.479599 0.826724 0.520487 0.448763 -0.417628 -0.281772 0.350435 -0.917182 0.304376 0.820483 0.630361 -0.548816 -0.649612 -0.497036 0.609082 0.112764 -0.192909 -0.764847 -0.0202994 -1.13097 -0.301402 0.782614 -0.341033 -0.260303 1.00411 -0.543453 0.455983 0.651182 0.616248 1.05479 0.678732 0.296341 

0.817155 0.213461 -0.208202 -0.686032 -1.00003 -1.06056 -0.371853 0.272021 0.869952 
-0.565966 0.662171 -0.770313 -0.488329 0.395853 0.262063 0.339829 0.580848 -0.806759 
0.62772 -0.656979 0.948512 -0.715771 -0.235903 0.609144 -0.185621 -0.849864 0.354048 
-0.809113 -0.805254 0.105517 0.553159 0.802849 -0.750787 -0.850664 -0.739451 -0.54324 
-0.394273 -0.236747 0.621574 -0.862414 -0.115504 0.29673 -0.613712 0.439628 -0.11167 
0.498614 -0.229438 -0.628623 0.609901 -0.922866 -0.398019 0.386982 -0.715604 0.621427 
0.126721 -0.336785 0.83713 -0.532131 -0.279304 -0.94142 0.460469 -0.77738 -0.875184 
0.775924 -0.658852 -0.592723 1.04705 -0.521511 0.0815948 0.719464 -0.351707 -0.777282 
0.475906 -0.206203 0.734657 0.962684 -0.668748 -0.635277 0.960402 0.582139 -0.137788 
-0.268587 0.166724 0.151159 -0.757034 -0.864529 0.207263 1.29499 -0.274325 -0.552875 
-0.775645 -0.824523 -0.400402 -0.763095 0.708972 -0.133987 -0.25343 0.869633 0.549473 
0.983249 0.390249 -0.546452 0.963194 -0.852672 -0.00362313 0.412407 0.75775 0.648167 
0.779221 0.868221 0.547678 -0.693124 -0.779174 -0.712573 0.312285 -0.421438 -0.202558 
-0.455763 -0.510387 0.557489 0.0194897 -0.713776 0.642092 0.335476 -0.38114 0.695893 
-0.356342 0.10841 0.603128 0.60793 -0.211517 -0.193896 0.851965 -0.630401 0.472818 
-0.0882058 0.814896 0.527661 -0.495766 0.350193 0.045557 0.616303 0.358762 0.58543 
0.832616 -0.354997 -0.750401 -0.433256 0.0613502 -0.290067 0.998849 0.733448 0.287952 
0.726477 -0.0800091 1.14241 0.22983 -0.147745 0.161172 -0.091411 -0.43207 1.16453 
0.446123 -0.764734 -0.361939 -0.142611 -0.145624 -0.572428 1.0981 0.103158 0.984759 
0.0544428 -0.495451 0.672269 -0.346312 -0.67028 -0.702558 -0.205872 -0.131911 0.407426 
0.822775 -0.134679 0.427352 -0.0168719 -0.653943 -1.04599 0.0635126 0.428947 0.291235 
0.918978 -0.765149 1.14326 0.992664 0.547693 -0.967439 -0.0773574 -0.610122 0.0656223 
-0.0792612 -0.66722 -0.791821 -0.0913056 0.37358 -0.36147 -0.395098 -0.98158 -0.0173975 
0.233105 -0.263571 1.09501 -0.354289 -0.808461 -0.36961 0.57506 -0.153565 0.456611 
0.702472 0.840664 0.0762301 0.208004 0.623706 0.171026 -0.121321 0.591288 -0.122729 
-0.127738 -0.847192 0.348907 0.893749 -0.00668331 0.377946 0.925193 0.928261 0.0372938 
-0.444586 -0.451967 0.018241 0.588403 0.326684 0.812886 0.409612 0.698355 -0.805928 
-0.825338 0.170538 0.246848 0.493717 -0.18728 0.0487296 -0.58085 0.769081 0.0227027 
1.06411 -0.602329 -0.237483 -0.238937 0.0445748 -0.322608 0.91579 -0.131517 1.12665 
0.372829 -0.0450153 0.863628 -0.625746 0.48289 -0.682278 0.381814 0.0469695 0.851263 
0.54989 -0.567646 0.647358 0.299903 -0.398259 -0.282388 -0.241582 -0.910065 0.768181 
0.996361 -0.499849 0.386717 -0.484793 -0.878256 0.883326 0.105325 -0.399735 0.248465 
1.18262 -0.65542 -0.467313 0.826214 0.518344 -0.251031 0.824854 -1.10074 -0.273407 
0.994638 0.340499 0.696085 0.696999 -0.606691 -0.997243 0.209364 0.732528 -0.189339 
0.953869 -0.755829 0.130618 0.66387 0.65248 0.203309 -0.090036 -0.645822 0.598206 
-0.219222 0.478104 -0.800577 0.880791 0.32499 -0.548993 -0.798445 -0.103903 -0.810311 
0.45771 -0.510885 -0.716983 0.848672 -0.769468 0.458669 0.684955 0.839268 -0.882752 
0.589075 0.0554689 0.774141 -0.56921 -0.0991104 -0.952163 0.213768 -0.647468 0.944708 
-0.189048 0.215158 -0.518138 -0.814169 0.769663 0.857308 -0.561352 0.787024 0.402212 
-0.267657 0.846543 -0.646717 -0.190306 -0.0764364 -0.267142 0.13192 -0.240868 0.0508699 
-0.284652 -0.793221 0.0590079 -0.3921 0.714101 -1.09032 -0.29317 -0.934407 -0.0566043 
-0.636273 0.356907 0.336496 -0.795608 0.949019 -0.421571 -0.357653 -0.986199 -0.451076 
-0.44096 -0.8122 -0.468099 0.626082 -0.19992 -0.786458 0.915877 0.421973 0.22804 
-0.426362 -0.516592 1.07836 0.730875 -0.226795 -0.814765 0.00742136 0.359969 0.986621 
-0.241905 0.531645 -0.81996 0.695045 0.809668 0.475518 -0.112712 -0.960841 0.468478 
0.580141 -0.396337 0.624604 -0.987433 -0.0170999 0.495616 -0.613005 -0.395533 -0.390089 
-0.276649 -0.552367 -0.824181 0.887259 -0.0661536 -0.586379 1.07109 -0.370187 0.444004 
0.965926 0.224954 -0.123205 0.950652 0.838027 -0.618722 -0.854144 0.327591 -0.67524 
0.636457 -0.725115 -0.397263 0.161144 0.592666 -0.232882 -0.347128 0.682995 0.917512 
-0.75544 -0.85298 -0.362203 -0.139039 -0.413847 -0.030744 0.189306 -0.446155 0.990094 
0.360397 -0.680256 -0.091436 -0.0494825 -0.979046 0.780469 1.02422 -0.730231 0.933419 
0.932124 -0.63524 0.348526 -0.691152 0.777538 0.197604 -0.132659 0.0336697 0.255312 
0.901555 0.574427 0.181271 0.437932 0.609228 -0.299523 1.13379 -0.494762 1.01156 
0.0934529 0.25872 -0.401405 -0.175415 -0.573545 -0.454181 0.48868 0.181918 0.131194 
0.21676 -0.2285 0.421999 0.00164734 -0.405621 0.589995 1.25776 -0.12477 0.707258 
0.627389 0.313159 -0.165072 -0.339919 -0.462031 -1.00071 0.611098 -1.1878 -0.799497 
-0.673367 0.837841 -0.417256 -0.913295 -0.394885 0.85614 -0.583046 0.360268 -0.593707 
0.122464 -0.289061 0.875036 -0.585896 0.548762 -0.559936 0.7807 -0.166565 0.279608 
0.0537627 -0.169061 -0.975605 -0.32631 -0.820781 0.346592 0.327611 -0.366323 -0.758483 
0.568818 0.9374 -0.853763 0.626726 -0.721081 0.978516 -0.790714 -0.634495 -0.365335 
-0.934668 -0.221541 0.962251 -0.530788 0.858482 -0.344427 -0.873862 -1.00403 -0.365624 
-0.244096 0.342301 0.496897 0.896303 -0.727775 -0.721355 0.74423 0.0603183 -0.306493 
0.43998 -0.565437 0.244163 0.292566 -0.999787 0.0244856 0.56383 0.478169 0.426082 
0.401045 0.82101 0.966646 1.16991 0.52858 -0.561653 1.17586 -0.633827 -0.379792 
-0.234102 -0.479226 -0.540607 0.244001 0.0913477 0.798738 -0.115232 -0.188396 -0.732851 
0.132599 -0.444374 0.462322 0.545779 0.66965 0.736268 -0.278143 -0.0923601 0.926916 
0.969912 -0.717143 0.528939 0.10396 0.647345 0.394757 -0.0484208 0.603524 0.349272 
0.686042 0.471114 0.768334 1.02838 -0.992139 -0.764309 -0.454624 0.31144 0.565433 
0.934888 -0.947702 -0.812775 -0.617799 0.0159387 -0.31346 0.579238 -0.37374 -0.526993 
0.976127 0.262037 0.61511 0.676553 -0.165318 0.202223 0.452937 -1.02581 0.438025 
-0.776474 -0.0213832 -0.178591 0.579148 -0.72984 -0.662501 0.404477 -0.948422 -0.438069 
0.658204 -0.877535 1.08929 0.103737 -1.20404 0.579267 0.363611 -0.84839 0.240829 
0.705898 0.859673 0.666366 -0.959576 0.294766 -0.034601 0.306139 -0.380322 -0.79999 
-0.130365 0.443444 -0.76695 -0.695648 0.617563 0.162317 -0.0289011 0.18274 0.491292 
0.902229 -0.558902 0.813294 0.948816 0.805296 0.451192 0.900484 -0.464269 1.06077 
0.516081 0.740494 -0.811008 -0.53386 0.368707 -0.92845 -0.892862 0.417239 0.432029 
0.216723 -0.265774 -0.732515 0.227681 0.405585 0.384411 0.597467 0.621291 0.203553 
-0.537987 -0.401664 -0.572874 0.967264 0.82721 -0.255747 0.642058 0.531718 -0.117126 
0.622553 0.0348132 1.07469 0.370308 -0.792126 -0.0825026 0.745158 -0.310782 0.050495 
0.454176 -0.0308409 -0.706435 -0.113995 -0.936904 0.0252024 -0.242874 0.171673 -0.253107 
-0.388665 -0.513613 -0.539802 0.426354 -0.0551026 -0.076837 0.850606 -0.27121 -0.180825 
-0.0807223 -0.610095 -0.470174 0.526604 0.550919 0.0296329 0.26698 -0.481752 0.827066 
-0.553702 -0.993596 -0.145157 0.227718 0.342807 0.677969 0.504235 -0.899446 0.950697 
-0.39555 -0.166327 0.0925949 0.225044 0.0330248 0.57052 0.449145 -0.577707 -0.386837 
-0.619311 -0.825014 0.444942 0.175514 -0.249229 0.820015 0.55878 -0.827775 0.476991 
-0.0315227 0.193381 -0.715616 -0.219416 0.440416 -0.895961 0.452578 -0.211856 0.552195 
0.293943 -0.717673 1.02037 0.161232 -0.557357 -0.633277 -0.70874 0.796012 0.70244 
0.737011 0.366651 -0.790787 -0.613331 0.573385 -0.949114 0.667852 -0.125044 -0.0134651 
0.513285 -0.682826 0.205625 0.0301674 0.0226308 -0.719814 0.22427 0.70127 1.09596 
0.447441 0.0902341 0.108502 0.0321882 -0.908099 0.0320674 -0.169909 0.141835 1.01392 
0.233101 0.32079 0.932651 -0.345633 -0.070772 0.174582 -0.0999844 0.28488 0.182414 
0.0864608 -0.0683135 0.851623 0.796426 -0.555339 -0.846349 -0.0469807 0.383036 0.405504 
0.515149 -0.53798 0.265764 0.596272 0.559961 -0.980256 -0.528624 -0.584533 -0.552519 
0.753617 0.0320915 0.691253 0.374784 -0.968827 0.0418568 0.00809733 -0.400504 -0.55202 
-0.581551 0.263772 0.722502 0.266501 -1.07278 -0.872644 0.421047 0.84457 -0.155023 
0.459608 -0.174232 -0.490375 -0.336599 -0.94962 -0.662074 0.628967 0.273183 -0.459506 
0.761449 0.51394 0.148511 -0.687426 -0.264267 -0.723515 0.858756 0.904151 -0.607925 
0.390558 -0.121961 0.091163 0.039259 0.0384099 -0.676291 -0.604496 -0.691568 -0.30021 
-0.264419 0.337256 -0.670066 0.532348 -0.452334 0.0481805 0.706772 0.105853 0.37146 
-0.264283 -0.308984 -0.279975 -0.0855488 -0.547497 -0.784564 -0.740531 -0.358869 0.126825 
-0.414882 -0.525106 0.0482219 -0.175512 0.366224 0.785282 0.832328 -0.744762 -0.0223112 
-0.482822 -0.20473 0.464566 -0.410783 0.516277 -0.504174 0.0791183 -0.0230782 0.373823 
0.933025 -0.235944 -0.609647 0.210181 0.106484 0.055222 0.891541 -0.953956 0.518043 
-0.796608 -0.921767 -0.685288 0.23841 -0.753575 -0.337955 1.13547 0.0423109 -0.93291 
0.816526 -0.15068 -0.53734 -0.203007 -0.0551368 0.257922 -0.898538 0.449487 -0.21011 
0.230518 -0.795926 1.02372 -0.560453 -1.08828 -0.515582 -0.332431 0.1144 0.999648 
0.424185 0.287645 0.815812 0.0364993 0.344337 0.894101 0.097546 -0.536503 -0.710488 
1.01432 -0.521077 0.852962 1.1612 -0.962016 -1.15314 0.197463 -0.0689505 0.275667 
0.533382 0.195495 -0.368316 -0.614187 0.934518 -0.103539 -0.561923 0.975199 0.0988242 
-0.120349 -0.657651 -0.303091 -0.451309 0.723555 0.619284 -0.593529 -0.291568 0.204619 
-0.743497 0.794383 0.768904 -0.387389 0.4373 -0.836438 1.16354 0.373987 -0.378377 
-0.710288 0.635036 0.695925 0.346228 -0.0063225 -0.291598 1.0358 0.44905 -0.235487 
-0.023996 0.650423 -0.0208273 0.950809 -0.662706 0.00301364 -0.452969 -0.0565094 -0.0208682 
-0.598115 0.358101 0.673747 0.461243 0.572321 0.128187 0.273748 -0.874478 -0.0135341 
0.690842 -0.977964 -0.557045 0.819632 -0.840029 0.840903 0.392182 0.268544 0.252613 
-0.798686 0.345445 -0.173321 -0.0401549 -0.932661 -0.768767 0.772152 -0.97325 -0.223084 
0.0388618 -0.618158 1.19629 0.684001 -0.675508 -0.235236 0.464119 -1.12985 -0.0198447 
-0.259977 0.0364672 0.0501955 0.484231 -0.680631 -0.106592 0.647357 -1.00209 0.353465 
0.537659 0.511018 -0.274756 -0.25224 0.516011 0.887998 0.457424 -0.444463 -0.875174 
0.577322 -0.828024 -0.80797 -0.669107 -0.193711 -0.499567 -0.786529 -0.624039 0.128018 
0.53159 0.374829 0.111362 0.994092 0.797838 -0.774371 -0.252187 0.126786 -0.141614 
0.746708 -0.220255 -0.240834 -0.199392 -0.67716 -0.743962 0.349909 -0.0537674 0.973966 
0.334301 -0.802218 -0.255565 0.456588 0.513075 -0.529606 0.473973 -0.993452 0.60011 
0.865984 -0.886884 0.879774 0.160596 0.236549 0.317053 -0.93498 0.0765963 0.252533 
-0.32489 0.822504 -0.464433 0.121813 0.304356 0.11336 1.01177 -0.636852 0.808895 
0.896971 0.687162 -0.5554 0.782711 -0.0271655 -0.309247 -0.771695 -0.749122 -0.422605 
-0.130452 0.622544 -0.414883 -0.59788 0.474836 -0.277927 -0.75231 -0.574761 -0.99761 
0.569101 -0.505119 0.15112 -0.252593 -0.237334 0.0301922 0.10569 0.621346 -0.369171 

-0.61526 -0.433362 0.011095 0.543198 -0.217396 0.209915 -0.891996 0.0721074 0.821694 -0.0557047 -0.423043 1.27679 0.527488 1.17818 0.745016 0.553841 -0.815881 0.376396 -0.245467 -0.444394 0.684067 -0.209822 -1.07527 1.19456 0.50751 0.029958 -0.334266 -0.133809 1.26162 -0.319239 0.665369 -0.651902 0.934399 0.0215125 1.15737 -0.66537 0.176958 -0.917091 -0.274492 -0.332518 -0.265013 -0.433112 -0.0421565 -0.534075 -0.58084 -0.502579 -0.718484 -0.34335 0.270167 -0.29461 0.584652 -0.260624 0.929651 0.388564 0.224913 0.499078 -0.761506 0.621634 -0.901798 -0.758652 -0.645203 0.846088 -0.290524 1.06609 -1.1831 -0.612841 -0.461934 0.486908 -0.611398 1.40743 -0.607059 1.17862 -0.475918 -0.197442 1.36889 -0.126011 0.156146 -1.05102 1.25043 -0.041927 -0.244727 -0.0572802 -1.07178 -0.704453 -0.297059 -0.109642 0.853185 -0.261321 -0.0499915 0.91729 0.249567 0.000297619 0.495601 0.982965 -0.106852 0.600766 -0.931366 -0.023102 -0.067958 -0.548186 -0.0544762 -0.0588266 -0.882642 0.532018 -0.948769 1.28005 -0.472283 1.39165 -1.2127 -0.923938 -0.242205 -0.0295942 0.489557 -0.0693034 0.301679 -0.733517 1.36665 0.232428 -0.227032 -0.523498 -0.147524 -0.598523 0.751057 -0.448599 0.794208 -0.591569 -1.03182 -0.91033 

0.738622 -0.126487 0.0480337 -0.185142 -1.19145 -0.157266 -0.603773 -0.956833 0.134043 