-0.181535 -0.626829 0.698495 0.458968 1.05748 -0.845774 -0.863099 0.311495 -0.666052 0.179363 -0.180273 0.180619 -0.391305 0.0268018 1.1775 0.876484 0.343072 0.835646 -0.716795 0.123248 -1.02104 -0.514226 -0.725537 0.608354 -0.630169 -0.256103 -0.499846 -0.875779 0.779164 -0.551119 0.276919 0.579415 0.22528 -0.295994 0.0896382 0.293992 -0.012834 0.590169 -0.591143 0.423657 0.322044 0.21606 -0.199543 1.12579 -0.166675 -0.478047 0.384748 0.878161 -0.930444 1.52651 0.0475278 -0.827888 -0.756312 0.624451 0.302992 -0.302214 -0.871657 -0.936399 -0.764735 -0.799875 -0.560941 1.10589 0.338008 0.647624 
-0.466669 0.0795207 0.0674624 0.496874 0.0702432 0.14841 0.119775 -0.921439 -0.183438 0.935094 0.800504 0.437178 -0.469776 0.477069 0.172063 -0.269771 0.396791 -0.668052 -0.119791 0.66946 0.620639 -0.339326 -0.542064 0.786745 -0.21516 0.3411 1.15351 0.10873 0.306428 0.719762 0.0264979 0.589501 -0.203127 0.741477 0.285378 0.739279 -0.0350187 -0.703163 0.881811 0.774791 -0.70468 0.593569 0.282161 -0.0073083 0.430249 -0.620845 0.43002 -0.426941 -0.189358 -0.30676 -0.624934 -0.447531 0.0412576 -0.196421 -0.654353 0.813608 -0.793658 -0.76151 -0.0516787 0.594883 1.23489 0.773637 0.294122 -0.287839 
0.499542 -0.262673 -0.70173 -0.507422 0.210879 -0.270297 -0.723299 0.359533 -0.690385 0.515517 -0.536729 0.567266 -0.911498 0.900208 -0.651266 -0.000967408 -0.719227 -0.583047 0.595596 0.555999 0.366771 0.93481 0.278917 0.51947 -0.869512 -0.672203 -0.200153 -0.750139 -0.839642 -0.603057 -0.323758 0.794598 0.146637 0.399218 -0.819446 -0.675785 0.999987 -0.380453 0.821557 -0.689239 0.995598 -0.748656 0.74108 -1.03245 -1.25837 1.0291 0.385756 -0.564463 -0.603782 -0.400789 0.880402 0.63939 -0.14107 0.189729 0.149101 -0.0948483 0.374775 -0.824275 0.104183 0.440655 -0.653864 1.0948 0.231661 0.809443 
0.495619 0.25782 -0.622566 0.450381 0.608383 0.596823 0.774622 0.766839 0.896829 0.559046 0.672414 0.890069 0.373414 -0.00548296 -0.884478 0.704118 0.791145 -0.788023 0.299414 -0.594602 0.205315 -0.541726 0.40124 -0.366266 -0.277403 -0.567761 -0.611105 0.172748 -0.61238 0.332158 0.247707 0.796574 -0.439916 0.204157 0.339714 -0.819438 -0.0570331 -0.0271379 0.84699 -0.147544 -0.327298 0.566253 -0.130973 -0.785146 -0.0921225 0.0139986 0.468515 -0.566927 0.325356 0.152172 -0.0721045 -0.390089 0.283435 -0.674566 0.241458 -0.918271 -0.172033 0.415523 0.305306 0.349213 -0.0110276 -0.727126 0.140492 0.2001 
0.461459 -0.343251 0.788333 -0.527721 0.979951 0.315668 0.425538 -0.485469 -0.0903959 -0.824713 -0.479006 0.887569 0.37225 -0.81252 -0.866023 -0.276798 0.170599 0.186423 0.333113 -0.515758 0.495441 -0.423241 -0.340716 -0.620498 1.00709 -1.1382 0.890281 -0.337042 -0.623598 -0.127006 1.09612 0.509463 0.529743 0.500951 -0.803234 0.254112 -0.232336 0.432661 0.86068 0.725603 0.723834 -0.810461 0.587314 0.140529 -0.143787 0.716367 0.664637 0.694916 -0.124419 0.406541 -0.674487 -0.452178 0.642715 -0.00920379 -0.074402 0.697884 -0.00804521 -0.417893 -0.781122 0.473465 0.627785 -0.7865 0.206218 -0.0732701 
0.676267 0.448504 -0.950177 -0.523959 -0.00312118 -0.545285 -0.806735 -0.320119 -0.331351 0.792367 0.878085 0.248918 0.699367 0.636255 0.155669 -0.336676 -0.265717 0.28597 0.217766 -0.391498 -0.643896 -0.85491 -0.784303 0.294415 -0.343508 -0.392844 -0.577802 -0.724306 -0.118835 0.86658 0.0137824 -0.221835 0.317493 0.411612 0.0504244 -0.607986 0.766073 0.405112 0.0242112 -0.517742 0.115121 0.0239134 0.659878 -0.356613 -0.738281 -0.165009 0.650765 0.318068 1.05311 -0.577527 0.795121 -0.727851 -0.0487029 -0.926193 0.560131 0.548772 -0.412644 -0.79422 0.773636 0.368079 -1.19642 -0.00541858 1.0477 0.470034 
-0.578234 -0.052212 0.422906 -0.805087 -0.845963 -0.0606157 -0.469273 0.31424 0.677274 -0.808019 -0.822767 -0.896955 -0.0631573 0.561737 0.513616 -0.114398 -0.80388 0.179273 0.15727 0.138455 0.232073 -0.276166 -0.391429 0.777447 -0.114034 -0.616657 -0.0211151 0.121331 0.236801 0.196148 -0.696462 0.915283 -0.85982 -0.914268 0.916757 -0.587033 -0.0365333 -0.41392 0.658802 -0.350382 -0.285614 0.929132 -0.311498 0.50978 0.0985263 -0.744381 -0.3212 0.611724 0.335353 0.433065 -0.383687 -0.557981 -0.500712 0.269059 -0.786967 0.34921 0.564525 0.438924 -0.556728 -0.271558 -0.62788 -0.0280623 -0.46324 -0.174288 
0.065692 -0.690552 0.418252 -0.972532 -0.189803 -0.392139 -0.323551 0.474815 -0.5636 0.363256 0.0401541 0.852562 0.352449 0.619571 0.280774 -0.347144 0.312704 -0.98799 0.0659197 0.588436 0.198696 0.285385 0.0370298 -0.198582 -0.225331 0.392197 0.844367 0.307363 -0.694248 -0.934215 -0.709814 0.115587 -0.624767 0.34986 0.328856 0.0534679 -0.997749 -1.10447 -0.411794 -0.560529 0.310736 0.543413 -0.637678 -0.208432 0.550717 0.575055 0.161261 -0.426583 0.686603 -0.390468 -0.685722 0.00692197 0.562749 0.337628 0.815519 -0.617777 -0.210957 0.412133 0.695281 0.168727 0.729285 0.759913 -0.588315 0.798936 
0.102886 0.86684 -0.318642 0.0746028 0.804841 0.723485 0.513567 0.188995 0.380597 0.9906 0.941358 -0.400116 0.748619 0.178313 0.427193 0.601868 0.463623 0.58982 -0.474431 0.23804 -0.00646157 -0.666091 0.590981 0.730171 0.707675 0.41245 -0.446739 0.295018 0.193798 0.291203 -0.102002 -0.428034 0.158043 -1.07174 0.441279 0.0968675 0.665218 0.145984 -0.802011 0.0528456 0.0206981 -0.714893 0.628703 -0.303878 0.0154519 -0.00225732 -0.517554 -0.120802 -0.3715 -0.400935 -0.965087 0.435193 0.286909 0.718627 0.170935 -0.106515 -0.0452772 0.99033 -0.839987 -0.925412 0.0791549 0.292483 -0.500243 -0.506209 

-0.0568954 0.534421 0.415288 -0.269748 -0.206183 0.473696 0.850094 0.634003 0.730588 
0.459486 -0.373678 0.0788196 -0.573108 -0.0506283 0.868307 -0.061982 0.74651 0.92725 
-0.893407 -0.233893 0.778515 0.51258 0.937243 -0.622311 0.542605 0.744449 -0.236256 
-0.945413 -0.157988 0.0424274 0.240714 -0.575187 -0.0270668 -0.229634 0.0287294 0.641395 
-0.805047 0.222722 0.731449 -0.683586 -0.191596 -0.578864 0.342057 0.133862 0.312835 
0.0670817 -0.86591 0.00598856 0.174299 -0.541706 -0.849174 -0.291836 -0.953561 0.672484 
0.0197253 0.515025 0.819813 0.933052 -0.58654 -0.107865 0.00617108 0.575941 0.165529 
0.795234 -0.833671 -0.443487 0.686586 -0.307808 0.713927 0.465868 -0.174018 -0.482736 
0.614888 -0.762551 0.625492 0.287663 0.401679 0.937931 -0.602546 -0.402975 -0.781486 
-0.599812 0.252225 -0.666699 -0.74665 -0.544896 0.881205 -0.973184 -0.678501 -0.791679 
-0.0787052 0.29712 0.686356 -0.815185 0.194886 -0.788694 -0.212428 -0.00389303 -0.301216 
-0.736011 -0.366196 0.991298 0.33403 -0.419927 -0.813535 -0.0271155 0.697001 0.513089 
-0.320501 0.999186 -0.994044 0.0624473 -0.61557 0.353059 0.409293 -0.332535 0.740447 
0.293424 -0.317035 -0.899664 0.533402 0.60666 0.397426 0.363843 0.808374 -0.374121 
0.387619 -0.52544 0.461517 -0.702525 0.137034 -0.781477 -0.82024 -0.784874 -0.601292 
-0.716136 0.178292 -0.922039 0.801639 0.873727 -0.791586 0.852355 -0.0594834 -0.532358 
-0.262478 -0.547187 0.218783 0.122918 0.767437 0.990753 0.146654 0.232674 0.327149 
-0.631928 -0.555342 0.227344 0.0156122 -0.985019 0.861268 -0.321876 -0.661453 0.0807736 
-0.198029 -0.385663 0.359808 0.290268 -0.113322 -0.461955 0.406372 -0.334216 -0.570952 
0.45093 -0.483801 0.323575 -0.969373 0.690239 0.687904 0.202398 -0.351447 0.261898 
-0.253127 0.801454 -0.383299 -0.304947 -0.722512 0.0969696 0.871161 0.297364 0.0984592 
0.642662 0.917914 0.473494 -0.312081 -0.280116 -0.912169 -0.952274 -0.989848 -0.0254917 
-0.414229 0.416525 0.640292 0.0148191 -0.0650583 -0.843484 -0.618033 -0.0327033 0.846762 
-0.913211 -0.831178 -0.510283 0.42271 0.222482 -0.814283 0.92313 0.734938 -0.667812 
-0.174565 0.552948 0.607226 -0.916267 0.193719 0.516212 0.533738 0.881463 -0.742928 
0.35145 0.895612 -0.856009 -0.446799 -0.510785 0.744949 -0.78873 0.524934 -0.553148 
-0.837951 0.990158 0.784146 -0.631657 1.14616 0.690764 -0.231948 0.427991 0.0328548 
-0.120434 0.308097 -0.383634 0.216391 -0.739681 -0.773369 -0.243554 -0.723213 0.247193 
-0.904771 0.622687 0.116452 -0.671211 0.298427 0.0048292 -0.402731 0.765665 0.520743 
-0.764198 -0.921984 0.00924279 -0.202587 -0.585626 -0.0871459 -0.676126 -0.379342 -0.14719 
-1.55821 0.24671 -0.513066 0.112168 -0.622466 0.481936 0.686566 0.231623 0.944382 
-0.537033 -1.04108 -0.932266 0.143513 -0.555338 0.942414 -0.655422 -0.385675 0.0542448 
0.276819 0.400679 0.0788268 -0.18677 0.644852 0.155357 0.843102 -0.556548 0.578487 
-0.509138 -0.0988781 -0.534426 0.827143 0.00394999 0.557169 0.963651 0.757569 0.796098 
0.116175 0.05795 -0.18369 0.142575 -0.0881006 0.158489 0.320465 -1.10053 0.302474 
-0.410404 -0.560454 -0.579493 -0.378972 0.762261 0.924986 0.601497 -0.536698 0.314706 
-0.374021 -0.788847 0.776866 -0.795533 -0.0404457 -0.459359 -0.600552 -0.424527 0.315286 
0.603048 -0.82678 -0.116908 0.383329 0.771232 -0.817815 -0.463483 -0.111213 0.239689 
0.249478 -0.609247 0.444808 0.257779 0.710813 0.570503 0.596222 -0.974806 0.165405 
-0.909575 0.359105 0.583046 -0.335538 -0.718202 0.830218 -0.529384 -0.81723 -0.37273 
-0.217995 -0.325228 0.287096 -0.841688 -0.367466 0.677743 0.208454 -0.853895 0.594636 
0.0041798 -0.138078 -0.341709 -0.0894826 -0.398722 0.463172 -0.781641 0.858029 -0.252676 
0.762463 0.349699 -0.0786967 -0.0567224 -0.415137 -0.551169 -0.507858 0.153442 -0.397662 
-0.99351 0.484295 0.0665743 0.0450767 -0.513574 0.754109 -0.679448 -0.469519 -0.492248 
-0.999727 0.903237 -0.22071 0.805493 0.501154 0.41867 -0.586438 -0.882677 0.925106 
0.410094 -0.774076 0.696824 -0.585486 0.988392 0.0536323 0.340302 -0.057098 0.616931 
0.267771 0.422554 -0.176667 -0.566193 0.721791 -0.566251 0.402214 -0.347548 -0.355861 
-0.345862 -0.372114 0.169965 0.251671 -0.162337 -0.0438897 -1.0195 -0.703534 -0.610198 
0.148002 -0.0790602 -0.551934 0.364365 -0.540885 -0.184839 0.0849629 -0.0816239 -0.30608 
-1.28895 -1.02236 0.673652 0.703492 1.02636 0.0212804 -0.410318 -0.876431 -0.242003 
-0.490108 0.411747 0.325846 0.411671 -0.297418 -0.928488 -0.173186 -1.01806 0.147199 
0.911977 -0.776062 0.750831 -0.665556 0.611169 -0.371073 -0.196383 -0.0732191 0.0671974 
0.110148 1.01043 0.922651 -0.696295 -0.893329 -0.753055 0.872427 0.867028 -0.9656 
-0.772497 -0.930417 -0.595228 0.481814 0.261098 -0.885679 -0.0510304 -0.441101 -0.161626 
-0.355519 0.296112 0.03849 -0.799063 0.519858 0.0876799 -0.88789 0.602737 -0.151749 
-0.230982 -0.283529 0.861709 0.833702 -0.793513 0.801793 0.751209 -0.616456 0.842809 
0.85499 -0.820137 0.643129 0.938385 0.0182 -0.990289 -0.622267 -0.424065 0.25529 
-0.476066 0.497352 -0.923865 0.463355 -0.298602 0.766709 -0.429582 0.105477 0.35208 
0.71429 0.208941 0.277055 -0.149141 -0.989814 1.01093 -0.262885 0.841984 -0.808761 
-0.608913 0.701028 -0.227507 -0.462197 0.597665 -0.190022 -0.909313 0.450562 0.868982 
-1.69914 0.960106 -0.223582 0.677952 -0.293041 0.962538 0.573628 0.814903 -0.355065 
-0.297335 -0.960745 0.520457 -0.739638 -0.848697 -0.228347 0.688389 -0.157842 -0.209505 
0.428903 0.534855 -0.297966 0.730891 -0.73577 -0.823971 -0.557422 -0.521136 0.765352 
0.193979 -0.265708 0.230986 0.0347877 -0.242402 0.0338005 0.391949 -0.956239 0.3002 

-0.520984 -0.0505828 0.345803 0.685583 -0.282983 0.0182887 0.00228614 -0.296179 0.279274 -0.575264 -0.484713 -0.409091 0.154843 -0.635994 -0.239905 -0.906755 -0.652124 0.236379 -0.575463 -0.320127 0.491125 -0.740673 -0.973677 -0.710108 0.593905 -0.0968674 0.363748 -0.599417 -0.769398 0.0685183 1.12765 0.437301 -0.52913 -0.0537096 0.251911 0.199117 -0.815013 -0.428497 0.661665 0.563681 0.497529 -0.790927 -0.570518 -0.10126 0.163542 -0.266427 -0.625541 0.17212 0.622333 0.743648 0.951203 0.214188 0.161359 1.2594 0.117392 -0.220667 -0.0262345 -0.331542 -0.453274 0.545245 0.807504 0.227988 -0.345206 -0.854957 

0.365996 -0.594637 0.125887 -0.984658 0.564816 -0.051422 0.866336 -0.335853 0.492752 